digraph Tree {
node [shape=box, style="filled", color="black", fontname="helvetica"] ;
edge [fontname="helvetica"] ;
0 [label="lead_time_norm <= 0.771\ngini = 0.44\nsamples = 20313\nvalue = [13686, 6627]\nclass = no_of_adults", fillcolor="#f2be99"] ;
1 [label="no_of_special_requests <= 0.5\ngini = 0.356\nsamples = 16323\nvalue = [12544, 3779]\nclass = no_of_adults", fillcolor="#eda775"] ;
0 -> 1 [labeldistance=2.5, labelangle=45, headlabel="True"] ;
2 [label="Aviation <= 0.5\ngini = 0.445\nsamples = 8516\nvalue = [5672, 2844]\nclass = no_of_adults", fillcolor="#f2c09c"] ;
1 -> 2 ;
3 [label="lead_time_norm <= 0.083\ngini = 0.247\nsamples = 4307\nvalue = [3685, 622]\nclass = no_of_adults", fillcolor="#e9965a"] ;
2 -> 3 ;
4 [label="no_of_weekend_nights <= 0.5\ngini = 0.163\nsamples = 3397\nvalue = [3093, 304]\nclass = no_of_adults", fillcolor="#e88d4c"] ;
3 -> 4 ;
5 [label="price_norm <= 2.795\ngini = 0.075\nsamples = 1986\nvalue = [1908, 78]\nclass = no_of_adults", fillcolor="#e68641"] ;
4 -> 5 ;
6 [label="Online <= 0.5\ngini = 0.06\nsamples = 1968\nvalue = [1907, 61]\nclass = no_of_adults", fillcolor="#e6853f"] ;
5 -> 6 ;
7 [label="room_type_4 <= 0.5\ngini = 0.004\nsamples = 1433\nvalue = [1430, 3]\nclass = no_of_adults", fillcolor="#e58139"] ;
6 -> 7 ;
8 [label="Corporate <= 0.5\ngini = 0.001\nsamples = 1347\nvalue = [1346, 1]\nclass = no_of_adults", fillcolor="#e58139"] ;
7 -> 8 ;
9 [label="gini = 0.0\nsamples = 1332\nvalue = [1332, 0]\nclass = no_of_adults", fillcolor="#e58139"] ;
8 -> 9 ;
10 [label="arrival_month <= 4.5\ngini = 0.124\nsamples = 15\nvalue = [14, 1]\nclass = no_of_adults", fillcolor="#e78a47"] ;
8 -> 10 ;
11 [label="gini = 0.0\nsamples = 10\nvalue = [10, 0]\nclass = no_of_adults", fillcolor="#e58139"] ;
10 -> 11 ;
12 [label="gini = 0.32\nsamples = 5\nvalue = [4, 1]\nclass = no_of_adults", fillcolor="#eca06a"] ;
10 -> 12 ;
13 [label="lead_time_norm <= 0.048\ngini = 0.045\nsamples = 86\nvalue = [84, 2]\nclass = no_of_adults", fillcolor="#e6843e"] ;
7 -> 13 ;
14 [label="Corporate <= 0.5\ngini = 0.024\nsamples = 84\nvalue = [83, 1]\nclass = no_of_adults", fillcolor="#e5833b"] ;
13 -> 14 ;
15 [label="gini = 0.0\nsamples = 75\nvalue = [75, 0]\nclass = no_of_adults", fillcolor="#e58139"] ;
14 -> 15 ;
16 [label="gini = 0.198\nsamples = 9\nvalue = [8, 1]\nclass = no_of_adults", fillcolor="#e89152"] ;
14 -> 16 ;
17 [label="gini = 0.5\nsamples = 2\nvalue = [1, 1]\nclass = no_of_adults", fillcolor="#ffffff"] ;
13 -> 17 ;
18 [label="room_type_4 <= 0.5\ngini = 0.193\nsamples = 535\nvalue = [477, 58]\nclass = no_of_adults", fillcolor="#e89051"] ;
6 -> 18 ;
19 [label="lead_time_norm <= -0.804\ngini = 0.166\nsamples = 503\nvalue = [457, 46]\nclass = no_of_adults", fillcolor="#e88e4d"] ;
18 -> 19 ;
20 [label="repeated_guest <= 0.5\ngini = 0.105\nsamples = 358\nvalue = [338, 20]\nclass = no_of_adults", fillcolor="#e78845"] ;
19 -> 20 ;
21 [label="gini = 0.146\nsamples = 253\nvalue = [233, 20]\nclass = no_of_adults", fillcolor="#e78c4a"] ;
20 -> 21 ;
22 [label="gini = 0.0\nsamples = 105\nvalue = [105, 0]\nclass = no_of_adults", fillcolor="#e58139"] ;
20 -> 22 ;
23 [label="price_norm <= 0.899\ngini = 0.294\nsamples = 145\nvalue = [119, 26]\nclass = no_of_adults", fillcolor="#eb9d64"] ;
19 -> 23 ;
24 [label="gini = 0.271\nsamples = 142\nvalue = [119, 23]\nclass = no_of_adults", fillcolor="#ea995f"] ;
23 -> 24 ;
25 [label="gini = 0.0\nsamples = 3\nvalue = [0, 3]\nclass = no_of_children", fillcolor="#399de5"] ;
23 -> 25 ;
26 [label="no_of_adults <= 1.5\ngini = 0.469\nsamples = 32\nvalue = [20, 12]\nclass = no_of_adults", fillcolor="#f5cdb0"] ;
18 -> 26 ;
27 [label="arrival_date <= 17.0\ngini = 0.34\nsamples = 23\nvalue = [18, 5]\nclass = no_of_adults", fillcolor="#eca470"] ;
26 -> 27 ;
28 [label="gini = 0.266\nsamples = 19\nvalue = [16, 3]\nclass = no_of_adults", fillcolor="#ea995e"] ;
27 -> 28 ;
29 [label="gini = 0.5\nsamples = 4\nvalue = [2, 2]\nclass = no_of_adults", fillcolor="#ffffff"] ;
27 -> 29 ;
30 [label="arrival_month <= 6.5\ngini = 0.346\nsamples = 9\nvalue = [2, 7]\nclass = no_of_children", fillcolor="#72b9ec"] ;
26 -> 30 ;
31 [label="gini = 0.0\nsamples = 7\nvalue = [0, 7]\nclass = no_of_children", fillcolor="#399de5"] ;
30 -> 31 ;
32 [label="gini = 0.0\nsamples = 2\nvalue = [2, 0]\nclass = no_of_adults", fillcolor="#e58139"] ;
30 -> 32 ;
33 [label="lead_time_norm <= -0.74\ngini = 0.105\nsamples = 18\nvalue = [1, 17]\nclass = no_of_children", fillcolor="#45a3e7"] ;
5 -> 33 ;
34 [label="gini = 0.5\nsamples = 2\nvalue = [1, 1]\nclass = no_of_adults", fillcolor="#ffffff"] ;
33 -> 34 ;
35 [label="gini = 0.0\nsamples = 16\nvalue = [0, 16]\nclass = no_of_children", fillcolor="#399de5"] ;
33 -> 35 ;
36 [label="lead_time_norm <= -0.197\ngini = 0.269\nsamples = 1411\nvalue = [1185, 226]\nclass = no_of_adults", fillcolor="#ea995f"] ;
4 -> 36 ;
37 [label="no_of_weekend_nights <= 4.5\ngini = 0.2\nsamples = 1179\nvalue = [1046, 133]\nclass = no_of_adults", fillcolor="#e89152"] ;
36 -> 37 ;
38 [label="arrival_date <= 27.5\ngini = 0.191\nsamples = 1171\nvalue = [1046, 125]\nclass = no_of_adults", fillcolor="#e89051"] ;
37 -> 38 ;
39 [label="arrival_month <= 9.5\ngini = 0.162\nsamples = 1058\nvalue = [964, 94]\nclass = no_of_adults", fillcolor="#e88d4c"] ;
38 -> 39 ;
40 [label="arrival_month <= 7.5\ngini = 0.214\nsamples = 606\nvalue = [532, 74]\nclass = no_of_adults", fillcolor="#e99355"] ;
39 -> 40 ;
41 [label="gini = 0.164\nsamples = 399\nvalue = [363, 36]\nclass = no_of_adults", fillcolor="#e88d4d"] ;
40 -> 41 ;
42 [label="gini = 0.3\nsamples = 207\nvalue = [169, 38]\nclass = no_of_adults", fillcolor="#eb9d66"] ;
40 -> 42 ;
43 [label="lead_time_norm <= -0.232\ngini = 0.085\nsamples = 452\nvalue = [432, 20]\nclass = no_of_adults", fillcolor="#e68742"] ;
39 -> 43 ;
44 [label="gini = 0.062\nsamples = 435\nvalue = [421, 14]\nclass = no_of_adults", fillcolor="#e68540"] ;
43 -> 44 ;
45 [label="gini = 0.457\nsamples = 17\nvalue = [11, 6]\nclass = no_of_adults", fillcolor="#f3c6a5"] ;
43 -> 45 ;
46 [label="arrival_month <= 2.5\ngini = 0.398\nsamples = 113\nvalue = [82, 31]\nclass = no_of_adults", fillcolor="#efb184"] ;
38 -> 46 ;
47 [label="no_of_week_nights <= 1.5\ngini = 0.353\nsamples = 35\nvalue = [8, 27]\nclass = no_of_children", fillcolor="#74baed"] ;
46 -> 47 ;
48 [label="gini = 0.069\nsamples = 28\nvalue = [1, 27]\nclass = no_of_children", fillcolor="#40a1e6"] ;
47 -> 48 ;
49 [label="gini = 0.0\nsamples = 7\nvalue = [7, 0]\nclass = no_of_adults", fillcolor="#e58139"] ;
47 -> 49 ;
50 [label="price_norm <= -1.829\ngini = 0.097\nsamples = 78\nvalue = [74, 4]\nclass = no_of_adults", fillcolor="#e68844"] ;
46 -> 50 ;
51 [label="gini = 0.5\nsamples = 2\nvalue = [1, 1]\nclass = no_of_adults", fillcolor="#ffffff"] ;
50 -> 51 ;
52 [label="gini = 0.076\nsamples = 76\nvalue = [73, 3]\nclass = no_of_adults", fillcolor="#e68641"] ;
50 -> 52 ;
53 [label="gini = 0.0\nsamples = 8\nvalue = [0, 8]\nclass = no_of_children", fillcolor="#399de5"] ;
37 -> 53 ;
54 [label="price_norm <= -0.1\ngini = 0.48\nsamples = 232\nvalue = [139, 93]\nclass = no_of_adults", fillcolor="#f6d5bd"] ;
36 -> 54 ;
55 [label="no_of_week_nights <= 1.5\ngini = 0.288\nsamples = 132\nvalue = [109, 23]\nclass = no_of_adults", fillcolor="#ea9c63"] ;
54 -> 55 ;
56 [label="gini = 0.0\nsamples = 24\nvalue = [24, 0]\nclass = no_of_adults", fillcolor="#e58139"] ;
55 -> 56 ;
57 [label="arrival_month <= 4.5\ngini = 0.335\nsamples = 108\nvalue = [85, 23]\nclass = no_of_adults", fillcolor="#eca36f"] ;
55 -> 57 ;
58 [label="price_norm <= -0.72\ngini = 0.434\nsamples = 44\nvalue = [30, 14]\nclass = no_of_adults", fillcolor="#f1bc95"] ;
57 -> 58 ;
59 [label="gini = 0.285\nsamples = 29\nvalue = [24, 5]\nclass = no_of_adults", fillcolor="#ea9b62"] ;
58 -> 59 ;
60 [label="gini = 0.48\nsamples = 15\nvalue = [6, 9]\nclass = no_of_children", fillcolor="#bddef6"] ;
58 -> 60 ;
61 [label="lead_time_norm <= -0.139\ngini = 0.242\nsamples = 64\nvalue = [55, 9]\nclass = no_of_adults", fillcolor="#e99659"] ;
57 -> 61 ;
62 [label="gini = 0.49\nsamples = 7\nvalue = [3, 4]\nclass = no_of_children", fillcolor="#cee6f8"] ;
61 -> 62 ;
63 [label="gini = 0.16\nsamples = 57\nvalue = [52, 5]\nclass = no_of_adults", fillcolor="#e88d4c"] ;
61 -> 63 ;
64 [label="lead_time_norm <= -0.081\ngini = 0.42\nsamples = 100\nvalue = [30, 70]\nclass = no_of_children", fillcolor="#8ec7f0"] ;
54 -> 64 ;
65 [label="price_norm <= 0.721\ngini = 0.266\nsamples = 76\nvalue = [12, 64]\nclass = no_of_children", fillcolor="#5eafea"] ;
64 -> 65 ;
66 [label="arrival_date <= 12.5\ngini = 0.134\nsamples = 69\nvalue = [5, 64]\nclass = no_of_children", fillcolor="#48a5e7"] ;
65 -> 66 ;
67 [label="gini = 0.0\nsamples = 40\nvalue = [0, 40]\nclass = no_of_children", fillcolor="#399de5"] ;
66 -> 67 ;
68 [label="gini = 0.285\nsamples = 29\nvalue = [5, 24]\nclass = no_of_children", fillcolor="#62b1ea"] ;
66 -> 68 ;
69 [label="gini = 0.0\nsamples = 7\nvalue = [7, 0]\nclass = no_of_adults", fillcolor="#e58139"] ;
65 -> 69 ;
70 [label="price_norm <= -0.078\ngini = 0.375\nsamples = 24\nvalue = [18, 6]\nclass = no_of_adults", fillcolor="#eeab7b"] ;
64 -> 70 ;
71 [label="gini = 0.0\nsamples = 5\nvalue = [0, 5]\nclass = no_of_children", fillcolor="#399de5"] ;
70 -> 71 ;
72 [label="no_of_adults <= 2.5\ngini = 0.1\nsamples = 19\nvalue = [18, 1]\nclass = no_of_adults", fillcolor="#e68844"] ;
70 -> 72 ;
73 [label="gini = 0.0\nsamples = 16\nvalue = [16, 0]\nclass = no_of_adults", fillcolor="#e58139"] ;
72 -> 73 ;
74 [label="gini = 0.444\nsamples = 3\nvalue = [2, 1]\nclass = no_of_adults", fillcolor="#f2c09c"] ;
72 -> 74 ;
75 [label="lead_time_norm <= 0.374\ngini = 0.455\nsamples = 910\nvalue = [592, 318]\nclass = no_of_adults", fillcolor="#f3c5a3"] ;
3 -> 75 ;
76 [label="arrival_month <= 10.5\ngini = 0.498\nsamples = 525\nvalue = [277, 248]\nclass = no_of_adults", fillcolor="#fcf2ea"] ;
75 -> 76 ;
77 [label="arrival_month <= 3.5\ngini = 0.5\nsamples = 491\nvalue = [244, 247]\nclass = no_of_children", fillcolor="#fdfeff"] ;
76 -> 77 ;
78 [label="price_norm <= -0.855\ngini = 0.38\nsamples = 102\nvalue = [76, 26]\nclass = no_of_adults", fillcolor="#eeac7d"] ;
77 -> 78 ;
79 [label="no_of_adults <= 1.5\ngini = 0.491\nsamples = 44\nvalue = [19, 25]\nclass = no_of_children", fillcolor="#cfe7f9"] ;
78 -> 79 ;
80 [label="gini = 0.0\nsamples = 23\nvalue = [0, 23]\nclass = no_of_children", fillcolor="#399de5"] ;
79 -> 80 ;
81 [label="price_norm <= -1.046\ngini = 0.172\nsamples = 21\nvalue = [19, 2]\nclass = no_of_adults", fillcolor="#e88e4e"] ;
79 -> 81 ;
82 [label="gini = 0.0\nsamples = 17\nvalue = [17, 0]\nclass = no_of_adults", fillcolor="#e58139"] ;
81 -> 82 ;
83 [label="gini = 0.5\nsamples = 4\nvalue = [2, 2]\nclass = no_of_adults", fillcolor="#ffffff"] ;
81 -> 83 ;
84 [label="arrival_date <= 20.5\ngini = 0.034\nsamples = 58\nvalue = [57, 1]\nclass = no_of_adults", fillcolor="#e5833c"] ;
78 -> 84 ;
85 [label="price_norm <= -0.663\ngini = 0.077\nsamples = 25\nvalue = [24, 1]\nclass = no_of_adults", fillcolor="#e68641"] ;
84 -> 85 ;
86 [label="gini = 0.245\nsamples = 7\nvalue = [6, 1]\nclass = no_of_adults", fillcolor="#e9965a"] ;
85 -> 86 ;
87 [label="gini = 0.0\nsamples = 18\nvalue = [18, 0]\nclass = no_of_adults", fillcolor="#e58139"] ;
85 -> 87 ;
88 [label="gini = 0.0\nsamples = 33\nvalue = [33, 0]\nclass = no_of_adults", fillcolor="#e58139"] ;
84 -> 88 ;
89 [label="arrival_date <= 29.5\ngini = 0.491\nsamples = 389\nvalue = [168, 221]\nclass = no_of_children", fillcolor="#d0e7f9"] ;
77 -> 89 ;
90 [label="arrival_month <= 4.5\ngini = 0.499\nsamples = 347\nvalue = [164, 183]\nclass = no_of_children", fillcolor="#eaf5fc"] ;
89 -> 90 ;
91 [label="no_of_weekend_nights <= 0.5\ngini = 0.068\nsamples = 57\nvalue = [2, 55]\nclass = no_of_children", fillcolor="#40a1e6"] ;
90 -> 91 ;
92 [label="gini = 0.0\nsamples = 50\nvalue = [0, 50]\nclass = no_of_children", fillcolor="#399de5"] ;
91 -> 92 ;
93 [label="gini = 0.408\nsamples = 7\nvalue = [2, 5]\nclass = no_of_children", fillcolor="#88c4ef"] ;
91 -> 93 ;
94 [label="price_norm <= -0.35\ngini = 0.493\nsamples = 290\nvalue = [162, 128]\nclass = no_of_adults", fillcolor="#fae5d5"] ;
90 -> 94 ;
95 [label="gini = 0.388\nsamples = 110\nvalue = [81, 29]\nclass = no_of_adults", fillcolor="#eeae80"] ;
94 -> 95 ;
96 [label="gini = 0.495\nsamples = 180\nvalue = [81, 99]\nclass = no_of_children", fillcolor="#dbedfa"] ;
94 -> 96 ;
97 [label="Online <= 0.5\ngini = 0.172\nsamples = 42\nvalue = [4, 38]\nclass = no_of_children", fillcolor="#4ea7e8"] ;
89 -> 97 ;
98 [label="no_of_week_nights <= 2.5\ngini = 0.36\nsamples = 17\nvalue = [4, 13]\nclass = no_of_children", fillcolor="#76bbed"] ;
97 -> 98 ;
99 [label="gini = 0.0\nsamples = 11\nvalue = [0, 11]\nclass = no_of_children", fillcolor="#399de5"] ;
98 -> 99 ;
100 [label="gini = 0.444\nsamples = 6\nvalue = [4, 2]\nclass = no_of_adults", fillcolor="#f2c09c"] ;
98 -> 100 ;
101 [label="gini = 0.0\nsamples = 25\nvalue = [0, 25]\nclass = no_of_children", fillcolor="#399de5"] ;
97 -> 101 ;
102 [label="Offline <= 0.5\ngini = 0.057\nsamples = 34\nvalue = [33, 1]\nclass = no_of_adults", fillcolor="#e6853f"] ;
76 -> 102 ;
103 [label="gini = 0.5\nsamples = 2\nvalue = [1, 1]\nclass = no_of_adults", fillcolor="#ffffff"] ;
102 -> 103 ;
104 [label="gini = 0.0\nsamples = 32\nvalue = [32, 0]\nclass = no_of_adults", fillcolor="#e58139"] ;
102 -> 104 ;
105 [label="no_of_week_nights <= 0.5\ngini = 0.298\nsamples = 385\nvalue = [315, 70]\nclass = no_of_adults", fillcolor="#eb9d65"] ;
75 -> 105 ;
106 [label="arrival_date <= 22.0\ngini = 0.386\nsamples = 23\nvalue = [6, 17]\nclass = no_of_children", fillcolor="#7fc0ee"] ;
105 -> 106 ;
107 [label="price_norm <= -0.272\ngini = 0.375\nsamples = 8\nvalue = [6, 2]\nclass = no_of_adults", fillcolor="#eeab7b"] ;
106 -> 107 ;
108 [label="gini = 0.278\nsamples = 6\nvalue = [5, 1]\nclass = no_of_adults", fillcolor="#ea9a61"] ;
107 -> 108 ;
109 [label="gini = 0.5\nsamples = 2\nvalue = [1, 1]\nclass = no_of_adults", fillcolor="#ffffff"] ;
107 -> 109 ;
110 [label="gini = 0.0\nsamples = 15\nvalue = [0, 15]\nclass = no_of_children", fillcolor="#399de5"] ;
106 -> 110 ;
111 [label="no_of_adults <= 1.5\ngini = 0.25\nsamples = 362\nvalue = [309, 53]\nclass = no_of_adults", fillcolor="#e9975b"] ;
105 -> 111 ;
112 [label="arrival_date <= 27.5\ngini = 0.019\nsamples = 104\nvalue = [103, 1]\nclass = no_of_adults", fillcolor="#e5823b"] ;
111 -> 112 ;
113 [label="gini = 0.0\nsamples = 97\nvalue = [97, 0]\nclass = no_of_adults", fillcolor="#e58139"] ;
112 -> 113 ;
114 [label="arrival_date <= 28.5\ngini = 0.245\nsamples = 7\nvalue = [6, 1]\nclass = no_of_adults", fillcolor="#e9965a"] ;
112 -> 114 ;
115 [label="gini = 0.5\nsamples = 2\nvalue = [1, 1]\nclass = no_of_adults", fillcolor="#ffffff"] ;
114 -> 115 ;
116 [label="gini = 0.0\nsamples = 5\nvalue = [5, 0]\nclass = no_of_adults", fillcolor="#e58139"] ;
114 -> 116 ;
117 [label="lead_time_norm <= 0.468\ngini = 0.322\nsamples = 258\nvalue = [206, 52]\nclass = no_of_adults", fillcolor="#eca16b"] ;
111 -> 117 ;
118 [label="no_of_week_nights <= 2.5\ngini = 0.478\nsamples = 66\nvalue = [40, 26]\nclass = no_of_adults", fillcolor="#f6d3ba"] ;
117 -> 118 ;
119 [label="price_norm <= -0.442\ngini = 0.5\nsamples = 49\nvalue = [24, 25]\nclass = no_of_children", fillcolor="#f7fbfe"] ;
118 -> 119 ;
120 [label="gini = 0.426\nsamples = 26\nvalue = [18, 8]\nclass = no_of_adults", fillcolor="#f1b991"] ;
119 -> 120 ;
121 [label="gini = 0.386\nsamples = 23\nvalue = [6, 17]\nclass = no_of_children", fillcolor="#7fc0ee"] ;
119 -> 121 ;
122 [label="arrival_date <= 17.0\ngini = 0.111\nsamples = 17\nvalue = [16, 1]\nclass = no_of_adults", fillcolor="#e78945"] ;
118 -> 122 ;
123 [label="gini = 0.0\nsamples = 12\nvalue = [12, 0]\nclass = no_of_adults", fillcolor="#e58139"] ;
122 -> 123 ;
124 [label="gini = 0.32\nsamples = 5\nvalue = [4, 1]\nclass = no_of_adults", fillcolor="#eca06a"] ;
122 -> 124 ;
125 [label="price_norm <= -0.388\ngini = 0.234\nsamples = 192\nvalue = [166, 26]\nclass = no_of_adults", fillcolor="#e99558"] ;
117 -> 125 ;
126 [label="room_type_1 <= 0.5\ngini = 0.096\nsamples = 99\nvalue = [94, 5]\nclass = no_of_adults", fillcolor="#e68844"] ;
125 -> 126 ;
127 [label="gini = 0.375\nsamples = 8\nvalue = [6, 2]\nclass = no_of_adults", fillcolor="#eeab7b"] ;
126 -> 127 ;
128 [label="gini = 0.064\nsamples = 91\nvalue = [88, 3]\nclass = no_of_adults", fillcolor="#e68540"] ;
126 -> 128 ;
129 [label="price_34 <= 0.5\ngini = 0.35\nsamples = 93\nvalue = [72, 21]\nclass = no_of_adults", fillcolor="#eda673"] ;
125 -> 129 ;
130 [label="gini = 0.436\nsamples = 56\nvalue = [38, 18]\nclass = no_of_adults", fillcolor="#f1bd97"] ;
129 -> 130 ;
131 [label="gini = 0.149\nsamples = 37\nvalue = [34, 3]\nclass = no_of_adults", fillcolor="#e78c4a"] ;
129 -> 131 ;
132 [label="lead_time_norm <= -0.839\ngini = 0.498\nsamples = 4209\nvalue = [1987, 2222]\nclass = no_of_children", fillcolor="#eaf5fc"] ;
2 -> 132 ;
133 [label="lead_time_norm <= -0.955\ngini = 0.362\nsamples = 1101\nvalue = [840, 261]\nclass = no_of_adults", fillcolor="#eda877"] ;
132 -> 133 ;
134 [label="price_norm <= 2.8\ngini = 0.221\nsamples = 537\nvalue = [469, 68]\nclass = no_of_adults", fillcolor="#e99356"] ;
133 -> 134 ;
135 [label="no_of_weekend_nights <= 1.5\ngini = 0.201\nsamples = 528\nvalue = [468, 60]\nclass = no_of_adults", fillcolor="#e89152"] ;
134 -> 135 ;
136 [label="price_norm <= -0.815\ngini = 0.159\nsamples = 447\nvalue = [408, 39]\nclass = no_of_adults", fillcolor="#e78d4c"] ;
135 -> 136 ;
137 [label="gini = 0.0\nsamples = 58\nvalue = [58, 0]\nclass = no_of_adults", fillcolor="#e58139"] ;
136 -> 137 ;
138 [label="arrival_month <= 9.5\ngini = 0.18\nsamples = 389\nvalue = [350, 39]\nclass = no_of_adults", fillcolor="#e88f4f"] ;
136 -> 138 ;
139 [label="arrival_month <= 1.5\ngini = 0.204\nsamples = 312\nvalue = [276, 36]\nclass = no_of_adults", fillcolor="#e89153"] ;
138 -> 139 ;
140 [label="gini = 0.0\nsamples = 29\nvalue = [29, 0]\nclass = no_of_adults", fillcolor="#e58139"] ;
139 -> 140 ;
141 [label="gini = 0.222\nsamples = 283\nvalue = [247, 36]\nclass = no_of_adults", fillcolor="#e99356"] ;
139 -> 141 ;
142 [label="price_norm <= 2.111\ngini = 0.075\nsamples = 77\nvalue = [74, 3]\nclass = no_of_adults", fillcolor="#e68641"] ;
138 -> 142 ;
143 [label="gini = 0.052\nsamples = 75\nvalue = [73, 2]\nclass = no_of_adults", fillcolor="#e6843e"] ;
142 -> 143 ;
144 [label="gini = 0.5\nsamples = 2\nvalue = [1, 1]\nclass = no_of_adults", fillcolor="#ffffff"] ;
142 -> 144 ;
145 [label="arrival_date <= 26.5\ngini = 0.384\nsamples = 81\nvalue = [60, 21]\nclass = no_of_adults", fillcolor="#eead7e"] ;
135 -> 145 ;
146 [label="lead_time_norm <= -0.967\ngini = 0.19\nsamples = 66\nvalue = [59, 7]\nclass = no_of_adults", fillcolor="#e89050"] ;
145 -> 146 ;
147 [label="no_of_week_nights <= 4.5\ngini = 0.113\nsamples = 50\nvalue = [47, 3]\nclass = no_of_adults", fillcolor="#e78946"] ;
146 -> 147 ;
148 [label="gini = 0.043\nsamples = 46\nvalue = [45, 1]\nclass = no_of_adults", fillcolor="#e6843d"] ;
147 -> 148 ;
149 [label="gini = 0.5\nsamples = 4\nvalue = [2, 2]\nclass = no_of_adults", fillcolor="#ffffff"] ;
147 -> 149 ;
150 [label="arrival_date <= 7.5\ngini = 0.375\nsamples = 16\nvalue = [12, 4]\nclass = no_of_adults", fillcolor="#eeab7b"] ;
146 -> 150 ;
151 [label="gini = 0.444\nsamples = 3\nvalue = [1, 2]\nclass = no_of_children", fillcolor="#9ccef2"] ;
150 -> 151 ;
152 [label="gini = 0.26\nsamples = 13\nvalue = [11, 2]\nclass = no_of_adults", fillcolor="#ea985d"] ;
150 -> 152 ;
153 [label="arrival_date <= 28.5\ngini = 0.124\nsamples = 15\nvalue = [1, 14]\nclass = no_of_children", fillcolor="#47a4e7"] ;
145 -> 153 ;
154 [label="gini = 0.0\nsamples = 13\nvalue = [0, 13]\nclass = no_of_children", fillcolor="#399de5"] ;
153 -> 154 ;
155 [label="gini = 0.5\nsamples = 2\nvalue = [1, 1]\nclass = no_of_adults", fillcolor="#ffffff"] ;
153 -> 155 ;
156 [label="arrival_month <= 9.5\ngini = 0.198\nsamples = 9\nvalue = [1, 8]\nclass = no_of_children", fillcolor="#52a9e8"] ;
134 -> 156 ;
157 [label="gini = 0.0\nsamples = 7\nvalue = [0, 7]\nclass = no_of_children", fillcolor="#399de5"] ;
156 -> 157 ;
158 [label="gini = 0.5\nsamples = 2\nvalue = [1, 1]\nclass = no_of_adults", fillcolor="#ffffff"] ;
156 -> 158 ;
159 [label="price_norm <= -0.077\ngini = 0.45\nsamples = 564\nvalue = [371, 193]\nclass = no_of_adults", fillcolor="#f3c3a0"] ;
133 -> 159 ;
160 [label="price_norm <= -0.713\ngini = 0.259\nsamples = 275\nvalue = [233, 42]\nclass = no_of_adults", fillcolor="#ea985d"] ;
159 -> 160 ;
161 [label="gini = 0.0\nsamples = 99\nvalue = [99, 0]\nclass = no_of_adults", fillcolor="#e58139"] ;
160 -> 161 ;
162 [label="arrival_month <= 11.5\ngini = 0.363\nsamples = 176\nvalue = [134, 42]\nclass = no_of_adults", fillcolor="#eda877"] ;
160 -> 162 ;
163 [label="arrival_date <= 3.5\ngini = 0.417\nsamples = 142\nvalue = [100, 42]\nclass = no_of_adults", fillcolor="#f0b68c"] ;
162 -> 163 ;
164 [label="gini = 0.0\nsamples = 18\nvalue = [18, 0]\nclass = no_of_adults", fillcolor="#e58139"] ;
163 -> 164 ;
165 [label="no_of_weekend_nights <= 0.5\ngini = 0.448\nsamples = 124\nvalue = [82, 42]\nclass = no_of_adults", fillcolor="#f2c29e"] ;
163 -> 165 ;
166 [label="gini = 0.358\nsamples = 60\nvalue = [46, 14]\nclass = no_of_adults", fillcolor="#eda775"] ;
165 -> 166 ;
167 [label="gini = 0.492\nsamples = 64\nvalue = [36, 28]\nclass = no_of_adults", fillcolor="#f9e3d3"] ;
165 -> 167 ;
168 [label="gini = 0.0\nsamples = 34\nvalue = [34, 0]\nclass = no_of_adults", fillcolor="#e58139"] ;
162 -> 168 ;
169 [label="arrival_month <= 8.5\ngini = 0.499\nsamples = 289\nvalue = [138, 151]\nclass = no_of_children", fillcolor="#eef7fd"] ;
159 -> 169 ;
170 [label="price_norm <= 2.909\ngini = 0.449\nsamples = 188\nvalue = [64, 124]\nclass = no_of_children", fillcolor="#9fd0f2"] ;
169 -> 170 ;
171 [label="price_norm <= 1.963\ngini = 0.459\nsamples = 179\nvalue = [64, 115]\nclass = no_of_children", fillcolor="#a7d4f3"] ;
170 -> 171 ;
172 [label="no_of_weekend_nights <= 1.5\ngini = 0.447\nsamples = 169\nvalue = [57, 112]\nclass = no_of_children", fillcolor="#9ecff2"] ;
171 -> 172 ;
173 [label="gini = 0.474\nsamples = 127\nvalue = [49, 78]\nclass = no_of_children", fillcolor="#b5dbf5"] ;
172 -> 173 ;
174 [label="gini = 0.308\nsamples = 42\nvalue = [8, 34]\nclass = no_of_children", fillcolor="#68b4eb"] ;
172 -> 174 ;
175 [label="no_of_adults <= 2.5\ngini = 0.42\nsamples = 10\nvalue = [7, 3]\nclass = no_of_adults", fillcolor="#f0b78e"] ;
171 -> 175 ;
176 [label="gini = 0.0\nsamples = 4\nvalue = [4, 0]\nclass = no_of_adults", fillcolor="#e58139"] ;
175 -> 176 ;
177 [label="gini = 0.5\nsamples = 6\nvalue = [3, 3]\nclass = no_of_adults", fillcolor="#ffffff"] ;
175 -> 177 ;
178 [label="gini = 0.0\nsamples = 9\nvalue = [0, 9]\nclass = no_of_children", fillcolor="#399de5"] ;
170 -> 178 ;
179 [label="arrival_date <= 14.0\ngini = 0.392\nsamples = 101\nvalue = [74, 27]\nclass = no_of_adults", fillcolor="#eeaf81"] ;
169 -> 179 ;
180 [label="arrival_month <= 11.5\ngini = 0.484\nsamples = 51\nvalue = [30, 21]\nclass = no_of_adults", fillcolor="#f7d9c4"] ;
179 -> 180 ;
181 [label="arrival_year <= 2017.5\ngini = 0.5\nsamples = 41\nvalue = [20, 21]\nclass = no_of_children", fillcolor="#f6fafe"] ;
180 -> 181 ;
182 [label="gini = 0.278\nsamples = 12\nvalue = [10, 2]\nclass = no_of_adults", fillcolor="#ea9a61"] ;
181 -> 182 ;
183 [label="gini = 0.452\nsamples = 29\nvalue = [10, 19]\nclass = no_of_children", fillcolor="#a1d1f3"] ;
181 -> 183 ;
184 [label="gini = 0.0\nsamples = 10\nvalue = [10, 0]\nclass = no_of_adults", fillcolor="#e58139"] ;
180 -> 184 ;
185 [label="price_norm <= 3.38\ngini = 0.211\nsamples = 50\nvalue = [44, 6]\nclass = no_of_adults", fillcolor="#e99254"] ;
179 -> 185 ;
186 [label="lead_time_norm <= -0.862\ngini = 0.153\nsamples = 48\nvalue = [44, 4]\nclass = no_of_adults", fillcolor="#e78c4b"] ;
185 -> 186 ;
187 [label="gini = 0.053\nsamples = 37\nvalue = [36, 1]\nclass = no_of_adults", fillcolor="#e6843e"] ;
186 -> 187 ;
188 [label="gini = 0.397\nsamples = 11\nvalue = [8, 3]\nclass = no_of_adults", fillcolor="#efb083"] ;
186 -> 188 ;
189 [label="gini = 0.0\nsamples = 2\nvalue = [0, 2]\nclass = no_of_children", fillcolor="#399de5"] ;
185 -> 189 ;
190 [label="price_12 <= 0.5\ngini = 0.466\nsamples = 3108\nvalue = [1147, 1961]\nclass = no_of_children", fillcolor="#add6f4"] ;
132 -> 190 ;
191 [label="required_car_parking_space <= 0.5\ngini = 0.413\nsamples = 1813\nvalue = [528, 1285]\nclass = no_of_children", fillcolor="#8ac5f0"] ;
190 -> 191 ;
192 [label="arrival_year <= 2017.5\ngini = 0.401\nsamples = 1777\nvalue = [493, 1284]\nclass = no_of_children", fillcolor="#85c3ef"] ;
191 -> 192 ;
193 [label="meal_type_2 <= 0.5\ngini = 0.457\nsamples = 65\nvalue = [42, 23]\nclass = no_of_adults", fillcolor="#f3c6a5"] ;
192 -> 193 ;
194 [label="price_norm <= -0.027\ngini = 0.245\nsamples = 49\nvalue = [42, 7]\nclass = no_of_adults", fillcolor="#e9965a"] ;
193 -> 194 ;
195 [label="gini = 0.0\nsamples = 2\nvalue = [0, 2]\nclass = no_of_children", fillcolor="#399de5"] ;
194 -> 195 ;
196 [label="arrival_date <= 17.5\ngini = 0.19\nsamples = 47\nvalue = [42, 5]\nclass = no_of_adults", fillcolor="#e89051"] ;
194 -> 196 ;
197 [label="gini = 0.064\nsamples = 30\nvalue = [29, 1]\nclass = no_of_adults", fillcolor="#e68540"] ;
196 -> 197 ;
198 [label="gini = 0.36\nsamples = 17\nvalue = [13, 4]\nclass = no_of_adults", fillcolor="#eda876"] ;
196 -> 198 ;
199 [label="gini = 0.0\nsamples = 16\nvalue = [0, 16]\nclass = no_of_children", fillcolor="#399de5"] ;
193 -> 199 ;
200 [label="arrival_month <= 10.5\ngini = 0.388\nsamples = 1712\nvalue = [451, 1261]\nclass = no_of_children", fillcolor="#80c0ee"] ;
192 -> 200 ;
201 [label="price_norm <= 0.775\ngini = 0.374\nsamples = 1579\nvalue = [393, 1186]\nclass = no_of_children", fillcolor="#7bbdee"] ;
200 -> 201 ;
202 [label="price_norm <= 0.746\ngini = 0.42\nsamples = 831\nvalue = [249, 582]\nclass = no_of_children", fillcolor="#8ec7f0"] ;
201 -> 202 ;
203 [label="gini = 0.411\nsamples = 802\nvalue = [232, 570]\nclass = no_of_children", fillcolor="#8ac5f0"] ;
202 -> 203 ;
204 [label="gini = 0.485\nsamples = 29\nvalue = [17, 12]\nclass = no_of_adults", fillcolor="#f7dac5"] ;
202 -> 204 ;
205 [label="price_norm <= 2.618\ngini = 0.311\nsamples = 748\nvalue = [144, 604]\nclass = no_of_children", fillcolor="#68b4eb"] ;
201 -> 205 ;
206 [label="gini = 0.335\nsamples = 672\nvalue = [143, 529]\nclass = no_of_children", fillcolor="#6fb7ec"] ;
205 -> 206 ;
207 [label="gini = 0.026\nsamples = 76\nvalue = [1, 75]\nclass = no_of_children", fillcolor="#3c9ee5"] ;
205 -> 207 ;
208 [label="lead_time_norm <= -0.588\ngini = 0.492\nsamples = 133\nvalue = [58, 75]\nclass = no_of_children", fillcolor="#d2e9f9"] ;
200 -> 208 ;
209 [label="arrival_month <= 11.5\ngini = 0.426\nsamples = 52\nvalue = [36, 16]\nclass = no_of_adults", fillcolor="#f1b991"] ;
208 -> 209 ;
210 [label="gini = 0.499\nsamples = 23\nvalue = [12, 11]\nclass = no_of_adults", fillcolor="#fdf5ef"] ;
209 -> 210 ;
211 [label="gini = 0.285\nsamples = 29\nvalue = [24, 5]\nclass = no_of_adults", fillcolor="#ea9b62"] ;
209 -> 211 ;
212 [label="arrival_date <= 7.5\ngini = 0.396\nsamples = 81\nvalue = [22, 59]\nclass = no_of_children", fillcolor="#83c2ef"] ;
208 -> 212 ;
213 [label="gini = 0.497\nsamples = 28\nvalue = [15, 13]\nclass = no_of_adults", fillcolor="#fceee5"] ;
212 -> 213 ;
214 [label="gini = 0.229\nsamples = 53\nvalue = [7, 46]\nclass = no_of_children", fillcolor="#57ace9"] ;
212 -> 214 ;
215 [label="no_of_week_nights <= 4.5\ngini = 0.054\nsamples = 36\nvalue = [35, 1]\nclass = no_of_adults", fillcolor="#e6853f"] ;
191 -> 215 ;
216 [label="gini = 0.0\nsamples = 34\nvalue = [34, 0]\nclass = no_of_adults", fillcolor="#e58139"] ;
215 -> 216 ;
217 [label="gini = 0.5\nsamples = 2\nvalue = [1, 1]\nclass = no_of_adults", fillcolor="#ffffff"] ;
215 -> 217 ;
218 [label="price_norm <= -1.232\ngini = 0.499\nsamples = 1295\nvalue = [619, 676]\nclass = no_of_children", fillcolor="#eef7fd"] ;
190 -> 218 ;
219 [label="lead_time_norm <= -0.011\ngini = 0.346\nsamples = 90\nvalue = [70, 20]\nclass = no_of_adults", fillcolor="#eca572"] ;
218 -> 219 ;
220 [label="arrival_date <= 6.5\ngini = 0.219\nsamples = 64\nvalue = [56, 8]\nclass = no_of_adults", fillcolor="#e99355"] ;
219 -> 220 ;
221 [label="price_norm <= -2.405\ngini = 0.444\nsamples = 12\nvalue = [8, 4]\nclass = no_of_adults", fillcolor="#f2c09c"] ;
220 -> 221 ;
222 [label="gini = 0.0\nsamples = 3\nvalue = [3, 0]\nclass = no_of_adults", fillcolor="#e58139"] ;
221 -> 222 ;
223 [label="price_norm <= -1.57\ngini = 0.494\nsamples = 9\nvalue = [5, 4]\nclass = no_of_adults", fillcolor="#fae6d7"] ;
221 -> 223 ;
224 [label="gini = 0.0\nsamples = 3\nvalue = [0, 3]\nclass = no_of_children", fillcolor="#399de5"] ;
223 -> 224 ;
225 [label="gini = 0.278\nsamples = 6\nvalue = [5, 1]\nclass = no_of_adults", fillcolor="#ea9a61"] ;
223 -> 225 ;
226 [label="lead_time_norm <= -0.605\ngini = 0.142\nsamples = 52\nvalue = [48, 4]\nclass = no_of_adults", fillcolor="#e78c49"] ;
220 -> 226 ;
227 [label="arrival_year <= 2017.5\ngini = 0.444\nsamples = 9\nvalue = [6, 3]\nclass = no_of_adults", fillcolor="#f2c09c"] ;
226 -> 227 ;
228 [label="gini = 0.0\nsamples = 6\nvalue = [6, 0]\nclass = no_of_adults", fillcolor="#e58139"] ;
227 -> 228 ;
229 [label="gini = 0.0\nsamples = 3\nvalue = [0, 3]\nclass = no_of_children", fillcolor="#399de5"] ;
227 -> 229 ;
230 [label="no_of_weekend_nights <= 1.5\ngini = 0.045\nsamples = 43\nvalue = [42, 1]\nclass = no_of_adults", fillcolor="#e6843e"] ;
226 -> 230 ;
231 [label="gini = 0.0\nsamples = 30\nvalue = [30, 0]\nclass = no_of_adults", fillcolor="#e58139"] ;
230 -> 231 ;
232 [label="gini = 0.142\nsamples = 13\nvalue = [12, 1]\nclass = no_of_adults", fillcolor="#e78c49"] ;
230 -> 232 ;
233 [label="arrival_date <= 27.5\ngini = 0.497\nsamples = 26\nvalue = [14, 12]\nclass = no_of_adults", fillcolor="#fbede3"] ;
219 -> 233 ;
234 [label="arrival_year <= 2017.5\ngini = 0.465\nsamples = 19\nvalue = [7, 12]\nclass = no_of_children", fillcolor="#acd6f4"] ;
233 -> 234 ;
235 [label="price_norm <= -1.373\ngini = 0.18\nsamples = 10\nvalue = [1, 9]\nclass = no_of_children", fillcolor="#4fa8e8"] ;
234 -> 235 ;
236 [label="gini = 0.0\nsamples = 7\nvalue = [0, 7]\nclass = no_of_children", fillcolor="#399de5"] ;
235 -> 236 ;
237 [label="gini = 0.444\nsamples = 3\nvalue = [1, 2]\nclass = no_of_children", fillcolor="#9ccef2"] ;
235 -> 237 ;
238 [label="arrival_month <= 2.5\ngini = 0.444\nsamples = 9\nvalue = [6, 3]\nclass = no_of_adults", fillcolor="#f2c09c"] ;
234 -> 238 ;
239 [label="gini = 0.0\nsamples = 2\nvalue = [0, 2]\nclass = no_of_children", fillcolor="#399de5"] ;
238 -> 239 ;
240 [label="gini = 0.245\nsamples = 7\nvalue = [6, 1]\nclass = no_of_adults", fillcolor="#e9965a"] ;
238 -> 240 ;
241 [label="gini = 0.0\nsamples = 7\nvalue = [7, 0]\nclass = no_of_adults", fillcolor="#e58139"] ;
233 -> 241 ;
242 [label="meal_type_1 <= 0.5\ngini = 0.496\nsamples = 1205\nvalue = [549, 656]\nclass = no_of_children", fillcolor="#dfeffb"] ;
218 -> 242 ;
243 [label="lead_time_norm <= -0.681\ngini = 0.443\nsamples = 440\nvalue = [146, 294]\nclass = no_of_children", fillcolor="#9bcef2"] ;
242 -> 243 ;
244 [label="arrival_date <= 25.5\ngini = 0.492\nsamples = 78\nvalue = [44, 34]\nclass = no_of_adults", fillcolor="#f9e2d2"] ;
243 -> 244 ;
245 [label="arrival_month <= 11.5\ngini = 0.5\nsamples = 70\nvalue = [36, 34]\nclass = no_of_adults", fillcolor="#fef8f4"] ;
244 -> 245 ;
246 [label="gini = 0.49\nsamples = 58\nvalue = [25, 33]\nclass = no_of_children", fillcolor="#cfe7f9"] ;
245 -> 246 ;
247 [label="gini = 0.153\nsamples = 12\nvalue = [11, 1]\nclass = no_of_adults", fillcolor="#e78c4b"] ;
245 -> 247 ;
248 [label="gini = 0.0\nsamples = 8\nvalue = [8, 0]\nclass = no_of_adults", fillcolor="#e58139"] ;
244 -> 248 ;
249 [label="price_norm <= -0.442\ngini = 0.405\nsamples = 362\nvalue = [102, 260]\nclass = no_of_children", fillcolor="#87c3ef"] ;
243 -> 249 ;
250 [label="lead_time_norm <= 0.514\ngini = 0.449\nsamples = 200\nvalue = [68, 132]\nclass = no_of_children", fillcolor="#9fcff2"] ;
249 -> 250 ;
251 [label="gini = 0.46\nsamples = 190\nvalue = [68, 122]\nclass = no_of_children", fillcolor="#a7d4f3"] ;
250 -> 251 ;
252 [label="gini = 0.0\nsamples = 10\nvalue = [0, 10]\nclass = no_of_children", fillcolor="#399de5"] ;
250 -> 252 ;
253 [label="price_norm <= -0.408\ngini = 0.332\nsamples = 162\nvalue = [34, 128]\nclass = no_of_children", fillcolor="#6eb7ec"] ;
249 -> 253 ;
254 [label="gini = 0.0\nsamples = 26\nvalue = [0, 26]\nclass = no_of_children", fillcolor="#399de5"] ;
253 -> 254 ;
255 [label="gini = 0.375\nsamples = 136\nvalue = [34, 102]\nclass = no_of_children", fillcolor="#7bbeee"] ;
253 -> 255 ;
256 [label="lead_time_norm <= -0.757\ngini = 0.499\nsamples = 765\nvalue = [403, 362]\nclass = no_of_adults", fillcolor="#fcf2eb"] ;
242 -> 256 ;
257 [label="arrival_month <= 8.5\ngini = 0.287\nsamples = 75\nvalue = [62, 13]\nclass = no_of_adults", fillcolor="#ea9b63"] ;
256 -> 257 ;
258 [label="arrival_date <= 12.5\ngini = 0.402\nsamples = 43\nvalue = [31, 12]\nclass = no_of_adults", fillcolor="#efb286"] ;
257 -> 258 ;
259 [label="gini = 0.492\nsamples = 16\nvalue = [7, 9]\nclass = no_of_children", fillcolor="#d3e9f9"] ;
258 -> 259 ;
260 [label="gini = 0.198\nsamples = 27\nvalue = [24, 3]\nclass = no_of_adults", fillcolor="#e89152"] ;
258 -> 260 ;
261 [label="no_of_children <= 0.5\ngini = 0.061\nsamples = 32\nvalue = [31, 1]\nclass = no_of_adults", fillcolor="#e6853f"] ;
257 -> 261 ;
262 [label="gini = 0.0\nsamples = 29\nvalue = [29, 0]\nclass = no_of_adults", fillcolor="#e58139"] ;
261 -> 262 ;
263 [label="gini = 0.444\nsamples = 3\nvalue = [2, 1]\nclass = no_of_adults", fillcolor="#f2c09c"] ;
261 -> 263 ;
264 [label="arrival_year <= 2017.5\ngini = 0.5\nsamples = 690\nvalue = [341, 349]\nclass = no_of_children", fillcolor="#fafdfe"] ;
256 -> 264 ;
265 [label="lead_time_norm <= -0.267\ngini = 0.429\nsamples = 109\nvalue = [75, 34]\nclass = no_of_adults", fillcolor="#f1ba93"] ;
264 -> 265 ;
266 [label="gini = 0.103\nsamples = 55\nvalue = [52, 3]\nclass = no_of_adults", fillcolor="#e68844"] ;
265 -> 266 ;
267 [label="gini = 0.489\nsamples = 54\nvalue = [23, 31]\nclass = no_of_children", fillcolor="#cce6f8"] ;
265 -> 267 ;
268 [label="no_of_week_nights <= 1.5\ngini = 0.496\nsamples = 581\nvalue = [266, 315]\nclass = no_of_children", fillcolor="#e0f0fb"] ;
264 -> 268 ;
269 [label="gini = 0.432\nsamples = 149\nvalue = [47, 102]\nclass = no_of_children", fillcolor="#94caf1"] ;
268 -> 269 ;
270 [label="gini = 0.5\nsamples = 432\nvalue = [219, 213]\nclass = no_of_adults", fillcolor="#fefcfa"] ;
268 -> 270 ;
271 [label="no_of_special_requests <= 1.5\ngini = 0.211\nsamples = 7807\nvalue = [6872, 935]\nclass = no_of_adults", fillcolor="#e99254"] ;
1 -> 271 ;
272 [label="Aviation <= 0.5\ngini = 0.26\nsamples = 5333\nvalue = [4512, 821]\nclass = no_of_adults", fillcolor="#ea985d"] ;
271 -> 272 ;
273 [label="lead_time_norm <= 0.759\ngini = 0.038\nsamples = 884\nvalue = [867, 17]\nclass = no_of_adults", fillcolor="#e6833d"] ;
272 -> 273 ;
274 [label="room_type_5 <= 0.5\ngini = 0.034\nsamples = 880\nvalue = [865, 15]\nclass = no_of_adults", fillcolor="#e5833c"] ;
273 -> 274 ;
275 [label="meal_type_4 <= 0.5\ngini = 0.025\nsamples = 863\nvalue = [852, 11]\nclass = no_of_adults", fillcolor="#e5833c"] ;
274 -> 275 ;
276 [label="lead_time_norm <= 0.071\ngini = 0.019\nsamples = 846\nvalue = [838, 8]\nclass = no_of_adults", fillcolor="#e5823b"] ;
275 -> 276 ;
277 [label="price_norm <= 0.742\ngini = 0.003\nsamples = 725\nvalue = [724, 1]\nclass = no_of_adults", fillcolor="#e58139"] ;
276 -> 277 ;
278 [label="gini = 0.0\nsamples = 700\nvalue = [700, 0]\nclass = no_of_adults", fillcolor="#e58139"] ;
277 -> 278 ;
279 [label="price_norm <= 0.813\ngini = 0.077\nsamples = 25\nvalue = [24, 1]\nclass = no_of_adults", fillcolor="#e68641"] ;
277 -> 279 ;
280 [label="gini = 0.444\nsamples = 3\nvalue = [2, 1]\nclass = no_of_adults", fillcolor="#f2c09c"] ;
279 -> 280 ;
281 [label="gini = 0.0\nsamples = 22\nvalue = [22, 0]\nclass = no_of_adults", fillcolor="#e58139"] ;
279 -> 281 ;
282 [label="arrival_date <= 12.5\ngini = 0.109\nsamples = 121\nvalue = [114, 7]\nclass = no_of_adults", fillcolor="#e78945"] ;
276 -> 282 ;
283 [label="arrival_year <= 2017.5\ngini = 0.215\nsamples = 57\nvalue = [50, 7]\nclass = no_of_adults", fillcolor="#e99355"] ;
282 -> 283 ;
284 [label="gini = 0.48\nsamples = 5\nvalue = [2, 3]\nclass = no_of_children", fillcolor="#bddef6"] ;
283 -> 284 ;
285 [label="gini = 0.142\nsamples = 52\nvalue = [48, 4]\nclass = no_of_adults", fillcolor="#e78c49"] ;
283 -> 285 ;
286 [label="gini = 0.0\nsamples = 64\nvalue = [64, 0]\nclass = no_of_adults", fillcolor="#e58139"] ;
282 -> 286 ;
287 [label="lead_12 <= 0.5\ngini = 0.291\nsamples = 17\nvalue = [14, 3]\nclass = no_of_adults", fillcolor="#eb9c63"] ;
275 -> 287 ;
288 [label="gini = 0.0\nsamples = 3\nvalue = [0, 3]\nclass = no_of_children", fillcolor="#399de5"] ;
287 -> 288 ;
289 [label="gini = 0.0\nsamples = 14\nvalue = [14, 0]\nclass = no_of_adults", fillcolor="#e58139"] ;
287 -> 289 ;
290 [label="price_norm <= 0.648\ngini = 0.36\nsamples = 17\nvalue = [13, 4]\nclass = no_of_adults", fillcolor="#eda876"] ;
274 -> 290 ;
291 [label="gini = 0.0\nsamples = 10\nvalue = [10, 0]\nclass = no_of_adults", fillcolor="#e58139"] ;
290 -> 291 ;
292 [label="no_of_week_nights <= 2.5\ngini = 0.49\nsamples = 7\nvalue = [3, 4]\nclass = no_of_children", fillcolor="#cee6f8"] ;
290 -> 292 ;
293 [label="gini = 0.0\nsamples = 3\nvalue = [3, 0]\nclass = no_of_adults", fillcolor="#e58139"] ;
292 -> 293 ;
294 [label="gini = 0.0\nsamples = 4\nvalue = [0, 4]\nclass = no_of_children", fillcolor="#399de5"] ;
292 -> 294 ;
295 [label="no_of_week_nights <= 1.5\ngini = 0.5\nsamples = 4\nvalue = [2, 2]\nclass = no_of_adults", fillcolor="#ffffff"] ;
273 -> 295 ;
296 [label="gini = 0.0\nsamples = 2\nvalue = [0, 2]\nclass = no_of_children", fillcolor="#399de5"] ;
295 -> 296 ;
297 [label="gini = 0.0\nsamples = 2\nvalue = [2, 0]\nclass = no_of_adults", fillcolor="#e58139"] ;
295 -> 297 ;
298 [label="lead_time_norm <= -0.885\ngini = 0.296\nsamples = 4449\nvalue = [3645, 804]\nclass = no_of_adults", fillcolor="#eb9d65"] ;
272 -> 298 ;
299 [label="lead_time_norm <= -0.944\ngini = 0.11\nsamples = 910\nvalue = [857, 53]\nclass = no_of_adults", fillcolor="#e78945"] ;
298 -> 299 ;
300 [label="no_of_weekend_nights <= 3.5\ngini = 0.066\nsamples = 558\nvalue = [539, 19]\nclass = no_of_adults", fillcolor="#e68540"] ;
299 -> 300 ;
301 [label="price_norm <= 4.121\ngini = 0.059\nsamples = 554\nvalue = [537, 17]\nclass = no_of_adults", fillcolor="#e6853f"] ;
300 -> 301 ;
302 [label="room_type_2 <= 0.5\ngini = 0.056\nsamples = 552\nvalue = [536, 16]\nclass = no_of_adults", fillcolor="#e6853f"] ;
301 -> 302 ;
303 [label="arrival_month <= 8.5\ngini = 0.053\nsamples = 547\nvalue = [532, 15]\nclass = no_of_adults", fillcolor="#e6853f"] ;
302 -> 303 ;
304 [label="gini = 0.029\nsamples = 341\nvalue = [336, 5]\nclass = no_of_adults", fillcolor="#e5833c"] ;
303 -> 304 ;
305 [label="gini = 0.092\nsamples = 206\nvalue = [196, 10]\nclass = no_of_adults", fillcolor="#e68743"] ;
303 -> 305 ;
306 [label="arrival_year <= 2017.5\ngini = 0.32\nsamples = 5\nvalue = [4, 1]\nclass = no_of_adults", fillcolor="#eca06a"] ;
302 -> 306 ;
307 [label="gini = 0.0\nsamples = 3\nvalue = [3, 0]\nclass = no_of_adults", fillcolor="#e58139"] ;
306 -> 307 ;
308 [label="gini = 0.5\nsamples = 2\nvalue = [1, 1]\nclass = no_of_adults", fillcolor="#ffffff"] ;
306 -> 308 ;
309 [label="gini = 0.5\nsamples = 2\nvalue = [1, 1]\nclass = no_of_adults", fillcolor="#ffffff"] ;
301 -> 309 ;
310 [label="arrival_date <= 22.0\ngini = 0.5\nsamples = 4\nvalue = [2, 2]\nclass = no_of_adults", fillcolor="#ffffff"] ;
300 -> 310 ;
311 [label="gini = 0.0\nsamples = 2\nvalue = [2, 0]\nclass = no_of_adults", fillcolor="#e58139"] ;
310 -> 311 ;
312 [label="gini = 0.0\nsamples = 2\nvalue = [0, 2]\nclass = no_of_children", fillcolor="#399de5"] ;
310 -> 312 ;
313 [label="price_norm <= 0.652\ngini = 0.175\nsamples = 352\nvalue = [318, 34]\nclass = no_of_adults", fillcolor="#e88e4e"] ;
299 -> 313 ;
314 [label="room_type_2 <= 0.5\ngini = 0.125\nsamples = 223\nvalue = [208, 15]\nclass = no_of_adults", fillcolor="#e78a47"] ;
313 -> 314 ;
315 [label="arrival_month <= 9.5\ngini = 0.119\nsamples = 221\nvalue = [207, 14]\nclass = no_of_adults", fillcolor="#e78a46"] ;
314 -> 315 ;
316 [label="arrival_month <= 7.5\ngini = 0.158\nsamples = 150\nvalue = [137, 13]\nclass = no_of_adults", fillcolor="#e78d4c"] ;
315 -> 316 ;
317 [label="gini = 0.113\nsamples = 116\nvalue = [109, 7]\nclass = no_of_adults", fillcolor="#e78946"] ;
316 -> 317 ;
318 [label="gini = 0.291\nsamples = 34\nvalue = [28, 6]\nclass = no_of_adults", fillcolor="#eb9c63"] ;
316 -> 318 ;
319 [label="arrival_date <= 29.5\ngini = 0.028\nsamples = 71\nvalue = [70, 1]\nclass = no_of_adults", fillcolor="#e5833c"] ;
315 -> 319 ;
320 [label="gini = 0.0\nsamples = 65\nvalue = [65, 0]\nclass = no_of_adults", fillcolor="#e58139"] ;
319 -> 320 ;
321 [label="gini = 0.278\nsamples = 6\nvalue = [5, 1]\nclass = no_of_adults", fillcolor="#ea9a61"] ;
319 -> 321 ;
322 [label="gini = 0.5\nsamples = 2\nvalue = [1, 1]\nclass = no_of_adults", fillcolor="#ffffff"] ;
314 -> 322 ;
323 [label="price_norm <= 0.742\ngini = 0.251\nsamples = 129\nvalue = [110, 19]\nclass = no_of_adults", fillcolor="#e9975b"] ;
313 -> 323 ;
324 [label="arrival_month <= 7.5\ngini = 0.49\nsamples = 14\nvalue = [8, 6]\nclass = no_of_adults", fillcolor="#f8e0ce"] ;
323 -> 324 ;
325 [label="gini = 0.0\nsamples = 3\nvalue = [0, 3]\nclass = no_of_children", fillcolor="#399de5"] ;
324 -> 325 ;
326 [label="lead_time_norm <= -0.909\ngini = 0.397\nsamples = 11\nvalue = [8, 3]\nclass = no_of_adults", fillcolor="#efb083"] ;
324 -> 326 ;
327 [label="gini = 0.48\nsamples = 5\nvalue = [2, 3]\nclass = no_of_children", fillcolor="#bddef6"] ;
326 -> 327 ;
328 [label="gini = 0.0\nsamples = 6\nvalue = [6, 0]\nclass = no_of_adults", fillcolor="#e58139"] ;
326 -> 328 ;
329 [label="price_norm <= 1.029\ngini = 0.201\nsamples = 115\nvalue = [102, 13]\nclass = no_of_adults", fillcolor="#e89152"] ;
323 -> 329 ;
330 [label="gini = 0.0\nsamples = 31\nvalue = [31, 0]\nclass = no_of_adults", fillcolor="#e58139"] ;
329 -> 330 ;
331 [label="lead_time_norm <= -0.897\ngini = 0.262\nsamples = 84\nvalue = [71, 13]\nclass = no_of_adults", fillcolor="#ea985d"] ;
329 -> 331 ;
332 [label="gini = 0.205\nsamples = 69\nvalue = [61, 8]\nclass = no_of_adults", fillcolor="#e89253"] ;
331 -> 332 ;
333 [label="gini = 0.444\nsamples = 15\nvalue = [10, 5]\nclass = no_of_adults", fillcolor="#f2c09c"] ;
331 -> 333 ;
334 [label="required_car_parking_space <= 0.5\ngini = 0.334\nsamples = 3539\nvalue = [2788, 751]\nclass = no_of_adults", fillcolor="#eca36e"] ;
298 -> 334 ;
335 [label="price_norm <= 0.432\ngini = 0.345\nsamples = 3385\nvalue = [2635, 750]\nclass = no_of_adults", fillcolor="#eca571"] ;
334 -> 335 ;
336 [label="no_of_weekend_nights <= 2.5\ngini = 0.303\nsamples = 2153\nvalue = [1753, 400]\nclass = no_of_adults", fillcolor="#eb9e66"] ;
335 -> 336 ;
337 [label="lead_time_norm <= -0.209\ngini = 0.297\nsamples = 2131\nvalue = [1745, 386]\nclass = no_of_adults", fillcolor="#eb9d65"] ;
336 -> 337 ;
338 [label="arrival_month <= 11.5\ngini = 0.252\nsamples = 1260\nvalue = [1074, 186]\nclass = no_of_adults", fillcolor="#ea975b"] ;
337 -> 338 ;
339 [label="gini = 0.276\nsamples = 1125\nvalue = [939, 186]\nclass = no_of_adults", fillcolor="#ea9a60"] ;
338 -> 339 ;
340 [label="gini = 0.0\nsamples = 135\nvalue = [135, 0]\nclass = no_of_adults", fillcolor="#e58139"] ;
338 -> 340 ;
341 [label="arrival_year <= 2017.5\ngini = 0.354\nsamples = 871\nvalue = [671, 200]\nclass = no_of_adults", fillcolor="#eda774"] ;
337 -> 341 ;
342 [label="gini = 0.497\nsamples = 98\nvalue = [53, 45]\nclass = no_of_adults", fillcolor="#fbece1"] ;
341 -> 342 ;
343 [label="gini = 0.321\nsamples = 773\nvalue = [618, 155]\nclass = no_of_adults", fillcolor="#eca16b"] ;
341 -> 343 ;
344 [label="arrival_month <= 3.5\ngini = 0.463\nsamples = 22\nvalue = [8, 14]\nclass = no_of_children", fillcolor="#aad5f4"] ;
336 -> 344 ;
345 [label="price_norm <= -0.648\ngini = 0.48\nsamples = 5\nvalue = [3, 2]\nclass = no_of_adults", fillcolor="#f6d5bd"] ;
344 -> 345 ;
346 [label="gini = 0.0\nsamples = 3\nvalue = [3, 0]\nclass = no_of_adults", fillcolor="#e58139"] ;
345 -> 346 ;
347 [label="gini = 0.0\nsamples = 2\nvalue = [0, 2]\nclass = no_of_children", fillcolor="#399de5"] ;
345 -> 347 ;
348 [label="lead_time_norm <= 0.287\ngini = 0.415\nsamples = 17\nvalue = [5, 12]\nclass = no_of_children", fillcolor="#8bc6f0"] ;
344 -> 348 ;
349 [label="gini = 0.278\nsamples = 12\nvalue = [2, 10]\nclass = no_of_children", fillcolor="#61b1ea"] ;
348 -> 349 ;
350 [label="gini = 0.48\nsamples = 5\nvalue = [3, 2]\nclass = no_of_adults", fillcolor="#f6d5bd"] ;
348 -> 350 ;
351 [label="arrival_month <= 8.5\ngini = 0.407\nsamples = 1232\nvalue = [882, 350]\nclass = no_of_adults", fillcolor="#efb388"] ;
335 -> 351 ;
352 [label="arrival_month <= 3.5\ngini = 0.354\nsamples = 665\nvalue = [512, 153]\nclass = no_of_adults", fillcolor="#eda774"] ;
351 -> 352 ;
353 [label="lead_time_norm <= -0.605\ngini = 0.499\nsamples = 50\nvalue = [26, 24]\nclass = no_of_adults", fillcolor="#fdf5f0"] ;
352 -> 353 ;
354 [label="gini = 0.255\nsamples = 20\nvalue = [17, 3]\nclass = no_of_adults", fillcolor="#ea975c"] ;
353 -> 354 ;
355 [label="gini = 0.42\nsamples = 30\nvalue = [9, 21]\nclass = no_of_children", fillcolor="#8ec7f0"] ;
353 -> 355 ;
356 [label="no_of_week_nights <= 7.0\ngini = 0.332\nsamples = 615\nvalue = [486, 129]\nclass = no_of_adults", fillcolor="#eca26e"] ;
352 -> 356 ;
357 [label="gini = 0.325\nsamples = 611\nvalue = [486, 125]\nclass = no_of_adults", fillcolor="#eca16c"] ;
356 -> 357 ;
358 [label="gini = 0.0\nsamples = 4\nvalue = [0, 4]\nclass = no_of_children", fillcolor="#399de5"] ;
356 -> 358 ;
359 [label="arrival_year <= 2017.5\ngini = 0.453\nsamples = 567\nvalue = [370, 197]\nclass = no_of_adults", fillcolor="#f3c4a2"] ;
351 -> 359 ;
360 [label="arrival_month <= 9.5\ngini = 0.228\nsamples = 61\nvalue = [53, 8]\nclass = no_of_adults", fillcolor="#e99457"] ;
359 -> 360 ;
361 [label="gini = 0.472\nsamples = 21\nvalue = [13, 8]\nclass = no_of_adults", fillcolor="#f5cfb3"] ;
360 -> 361 ;
362 [label="gini = 0.0\nsamples = 40\nvalue = [40, 0]\nclass = no_of_adults", fillcolor="#e58139"] ;
360 -> 362 ;
363 [label="lead_time_norm <= -0.862\ngini = 0.468\nsamples = 506\nvalue = [317, 189]\nclass = no_of_adults", fillcolor="#f5ccaf"] ;
359 -> 363 ;
364 [label="gini = 0.397\nsamples = 22\nvalue = [6, 16]\nclass = no_of_children", fillcolor="#83c2ef"] ;
363 -> 364 ;
365 [label="gini = 0.459\nsamples = 484\nvalue = [311, 173]\nclass = no_of_adults", fillcolor="#f3c7a7"] ;
363 -> 365 ;
366 [label="lead_time_norm <= 0.736\ngini = 0.013\nsamples = 154\nvalue = [153, 1]\nclass = no_of_adults", fillcolor="#e5823a"] ;
334 -> 366 ;
367 [label="gini = 0.0\nsamples = 152\nvalue = [152, 0]\nclass = no_of_adults", fillcolor="#e58139"] ;
366 -> 367 ;
368 [label="gini = 0.5\nsamples = 2\nvalue = [1, 1]\nclass = no_of_adults", fillcolor="#ffffff"] ;
366 -> 368 ;
369 [label="lead_time_norm <= 0.048\ngini = 0.088\nsamples = 2474\nvalue = [2360, 114]\nclass = no_of_adults", fillcolor="#e68743"] ;
271 -> 369 ;
370 [label="no_of_week_nights <= 3.5\ngini = 0.033\nsamples = 1992\nvalue = [1959, 33]\nclass = no_of_adults", fillcolor="#e5833c"] ;
369 -> 370 ;
371 [label="gini = 0.0\nsamples = 1716\nvalue = [1716, 0]\nclass = no_of_adults", fillcolor="#e58139"] ;
370 -> 371 ;
372 [label="no_of_special_requests <= 2.5\ngini = 0.211\nsamples = 276\nvalue = [243, 33]\nclass = no_of_adults", fillcolor="#e99254"] ;
370 -> 372 ;
373 [label="no_of_week_nights <= 10.0\ngini = 0.247\nsamples = 229\nvalue = [196, 33]\nclass = no_of_adults", fillcolor="#e9965a"] ;
372 -> 373 ;
374 [label="arrival_month <= 11.5\ngini = 0.236\nsamples = 227\nvalue = [196, 31]\nclass = no_of_adults", fillcolor="#e99558"] ;
373 -> 374 ;
375 [label="room_type_4 <= 0.5\ngini = 0.267\nsamples = 195\nvalue = [164, 31]\nclass = no_of_adults", fillcolor="#ea995e"] ;
374 -> 375 ;
376 [label="price_norm <= 0.597\ngini = 0.313\nsamples = 139\nvalue = [112, 27]\nclass = no_of_adults", fillcolor="#eb9f69"] ;
375 -> 376 ;
377 [label="gini = 0.245\nsamples = 98\nvalue = [84, 14]\nclass = no_of_adults", fillcolor="#e9965a"] ;
376 -> 377 ;
378 [label="gini = 0.433\nsamples = 41\nvalue = [28, 13]\nclass = no_of_adults", fillcolor="#f1bc95"] ;
376 -> 378 ;
379 [label="lead_time_norm <= -0.565\ngini = 0.133\nsamples = 56\nvalue = [52, 4]\nclass = no_of_adults", fillcolor="#e78b48"] ;
375 -> 379 ;
380 [label="gini = 0.278\nsamples = 18\nvalue = [15, 3]\nclass = no_of_adults", fillcolor="#ea9a61"] ;
379 -> 380 ;
381 [label="gini = 0.051\nsamples = 38\nvalue = [37, 1]\nclass = no_of_adults", fillcolor="#e6843e"] ;
379 -> 381 ;
382 [label="gini = 0.0\nsamples = 32\nvalue = [32, 0]\nclass = no_of_adults", fillcolor="#e58139"] ;
374 -> 382 ;
383 [label="gini = 0.0\nsamples = 2\nvalue = [0, 2]\nclass = no_of_children", fillcolor="#399de5"] ;
373 -> 383 ;
384 [label="gini = 0.0\nsamples = 47\nvalue = [47, 0]\nclass = no_of_adults", fillcolor="#e58139"] ;
372 -> 384 ;
385 [label="price_norm <= 2.836\ngini = 0.28\nsamples = 482\nvalue = [401, 81]\nclass = no_of_adults", fillcolor="#ea9a61"] ;
369 -> 385 ;
386 [label="arrival_month <= 8.5\ngini = 0.265\nsamples = 476\nvalue = [401, 75]\nclass = no_of_adults", fillcolor="#ea995e"] ;
385 -> 386 ;
387 [label="arrival_year <= 2017.5\ngini = 0.168\nsamples = 270\nvalue = [245, 25]\nclass = no_of_adults", fillcolor="#e88e4d"] ;
386 -> 387 ;
388 [label="arrival_month <= 7.5\ngini = 0.499\nsamples = 19\nvalue = [9, 10]\nclass = no_of_children", fillcolor="#ebf5fc"] ;
387 -> 388 ;
389 [label="arrival_date <= 26.0\ngini = 0.219\nsamples = 8\nvalue = [1, 7]\nclass = no_of_children", fillcolor="#55abe9"] ;
388 -> 389 ;
390 [label="gini = 0.0\nsamples = 6\nvalue = [0, 6]\nclass = no_of_children", fillcolor="#399de5"] ;
389 -> 390 ;
391 [label="gini = 0.5\nsamples = 2\nvalue = [1, 1]\nclass = no_of_adults", fillcolor="#ffffff"] ;
389 -> 391 ;
392 [label="arrival_date <= 21.5\ngini = 0.397\nsamples = 11\nvalue = [8, 3]\nclass = no_of_adults", fillcolor="#efb083"] ;
388 -> 392 ;
393 [label="arrival_date <= 7.5\ngini = 0.198\nsamples = 9\nvalue = [8, 1]\nclass = no_of_adults", fillcolor="#e89152"] ;
392 -> 393 ;
394 [label="gini = 0.5\nsamples = 2\nvalue = [1, 1]\nclass = no_of_adults", fillcolor="#ffffff"] ;
393 -> 394 ;
395 [label="gini = 0.0\nsamples = 7\nvalue = [7, 0]\nclass = no_of_adults", fillcolor="#e58139"] ;
393 -> 395 ;
396 [label="gini = 0.0\nsamples = 2\nvalue = [0, 2]\nclass = no_of_children", fillcolor="#399de5"] ;
392 -> 396 ;
397 [label="lead_time_norm <= 0.759\ngini = 0.112\nsamples = 251\nvalue = [236, 15]\nclass = no_of_adults", fillcolor="#e78946"] ;
387 -> 397 ;
398 [label="no_of_week_nights <= 6.5\ngini = 0.092\nsamples = 248\nvalue = [236, 12]\nclass = no_of_adults", fillcolor="#e68743"] ;
397 -> 398 ;
399 [label="no_of_week_nights <= 4.5\ngini = 0.085\nsamples = 246\nvalue = [235, 11]\nclass = no_of_adults", fillcolor="#e68742"] ;
398 -> 399 ;
400 [label="gini = 0.065\nsamples = 207\nvalue = [200, 7]\nclass = no_of_adults", fillcolor="#e68540"] ;
399 -> 400 ;
401 [label="gini = 0.184\nsamples = 39\nvalue = [35, 4]\nclass = no_of_adults", fillcolor="#e88f50"] ;
399 -> 401 ;
402 [label="gini = 0.5\nsamples = 2\nvalue = [1, 1]\nclass = no_of_adults", fillcolor="#ffffff"] ;
398 -> 402 ;
403 [label="gini = 0.0\nsamples = 3\nvalue = [0, 3]\nclass = no_of_children", fillcolor="#399de5"] ;
397 -> 403 ;
404 [label="no_of_special_requests <= 2.5\ngini = 0.368\nsamples = 206\nvalue = [156, 50]\nclass = no_of_adults", fillcolor="#eda978"] ;
386 -> 404 ;
405 [label="no_of_week_nights <= 0.5\ngini = 0.408\nsamples = 175\nvalue = [125, 50]\nclass = no_of_adults", fillcolor="#efb388"] ;
404 -> 405 ;
406 [label="arrival_month <= 10.5\ngini = 0.48\nsamples = 10\nvalue = [4, 6]\nclass = no_of_children", fillcolor="#bddef6"] ;
405 -> 406 ;
407 [label="gini = 0.0\nsamples = 4\nvalue = [4, 0]\nclass = no_of_adults", fillcolor="#e58139"] ;
406 -> 407 ;
408 [label="gini = 0.0\nsamples = 6\nvalue = [0, 6]\nclass = no_of_children", fillcolor="#399de5"] ;
406 -> 408 ;
409 [label="no_of_adults <= 1.5\ngini = 0.391\nsamples = 165\nvalue = [121, 44]\nclass = no_of_adults", fillcolor="#eeaf81"] ;
405 -> 409 ;
410 [label="gini = 0.0\nsamples = 17\nvalue = [17, 0]\nclass = no_of_adults", fillcolor="#e58139"] ;
409 -> 410 ;
411 [label="lead_time_norm <= 0.094\ngini = 0.418\nsamples = 148\nvalue = [104, 44]\nclass = no_of_adults", fillcolor="#f0b68d"] ;
409 -> 411 ;
412 [label="gini = 0.0\nsamples = 6\nvalue = [0, 6]\nclass = no_of_children", fillcolor="#399de5"] ;
411 -> 412 ;
413 [label="gini = 0.392\nsamples = 142\nvalue = [104, 38]\nclass = no_of_adults", fillcolor="#eeaf81"] ;
411 -> 413 ;
414 [label="gini = 0.0\nsamples = 31\nvalue = [31, 0]\nclass = no_of_adults", fillcolor="#e58139"] ;
404 -> 414 ;
415 [label="gini = 0.0\nsamples = 6\nvalue = [0, 6]\nclass = no_of_children", fillcolor="#399de5"] ;
385 -> 415 ;
416 [label="price_norm <= -0.098\ngini = 0.409\nsamples = 3990\nvalue = [1142, 2848]\nclass = no_of_children", fillcolor="#88c4ef"] ;
0 -> 416 [labeldistance=2.5, labelangle=-45, headlabel="False"] ;
417 [label="no_of_special_requests <= 0.5\ngini = 0.499\nsamples = 2201\nvalue = [1056, 1145]\nclass = no_of_children", fillcolor="#f0f7fd"] ;
416 -> 417 ;
418 [label="Aviation <= 0.5\ngini = 0.467\nsamples = 1530\nvalue = [567, 963]\nclass = no_of_children", fillcolor="#aed7f4"] ;
417 -> 418 ;
419 [label="no_of_adults <= 1.5\ngini = 0.498\nsamples = 1047\nvalue = [553, 494]\nclass = no_of_adults", fillcolor="#fcf2ea"] ;
418 -> 419 ;
420 [label="lead_time_norm <= 0.911\ngini = 0.246\nsamples = 327\nvalue = [280, 47]\nclass = no_of_adults", fillcolor="#e9965a"] ;
419 -> 420 ;
421 [label="no_of_weekend_nights <= 1.5\ngini = 0.432\nsamples = 19\nvalue = [6, 13]\nclass = no_of_children", fillcolor="#94caf1"] ;
420 -> 421 ;
422 [label="no_of_week_nights <= 2.5\ngini = 0.245\nsamples = 7\nvalue = [6, 1]\nclass = no_of_adults", fillcolor="#e9965a"] ;
421 -> 422 ;
423 [label="gini = 0.0\nsamples = 5\nvalue = [5, 0]\nclass = no_of_adults", fillcolor="#e58139"] ;
422 -> 423 ;
424 [label="gini = 0.5\nsamples = 2\nvalue = [1, 1]\nclass = no_of_adults", fillcolor="#ffffff"] ;
422 -> 424 ;
425 [label="gini = 0.0\nsamples = 12\nvalue = [0, 12]\nclass = no_of_children", fillcolor="#399de5"] ;
421 -> 425 ;
426 [label="lead_time_norm <= 3.838\ngini = 0.196\nsamples = 308\nvalue = [274, 34]\nclass = no_of_adults", fillcolor="#e89152"] ;
420 -> 426 ;
427 [label="lead_time_norm <= 2.981\ngini = 0.187\nsamples = 306\nvalue = [274, 32]\nclass = no_of_adults", fillcolor="#e89050"] ;
426 -> 427 ;
428 [label="arrival_month <= 5.5\ngini = 0.162\nsamples = 281\nvalue = [256, 25]\nclass = no_of_adults", fillcolor="#e88d4c"] ;
427 -> 428 ;
429 [label="price_norm <= -0.442\ngini = 0.426\nsamples = 13\nvalue = [9, 4]\nclass = no_of_adults", fillcolor="#f1b991"] ;
428 -> 429 ;
430 [label="gini = 0.18\nsamples = 10\nvalue = [9, 1]\nclass = no_of_adults", fillcolor="#e88f4f"] ;
429 -> 430 ;
431 [label="gini = 0.0\nsamples = 3\nvalue = [0, 3]\nclass = no_of_children", fillcolor="#399de5"] ;
429 -> 431 ;
432 [label="price_norm <= -0.376\ngini = 0.144\nsamples = 268\nvalue = [247, 21]\nclass = no_of_adults", fillcolor="#e78c4a"] ;
428 -> 432 ;
433 [label="gini = 0.045\nsamples = 131\nvalue = [128, 3]\nclass = no_of_adults", fillcolor="#e6843e"] ;
432 -> 433 ;
434 [label="gini = 0.228\nsamples = 137\nvalue = [119, 18]\nclass = no_of_adults", fillcolor="#e99457"] ;
432 -> 434 ;
435 [label="no_of_week_nights <= 4.0\ngini = 0.403\nsamples = 25\nvalue = [18, 7]\nclass = no_of_adults", fillcolor="#efb286"] ;
427 -> 435 ;
436 [label="price_norm <= -0.67\ngini = 0.332\nsamples = 19\nvalue = [15, 4]\nclass = no_of_adults", fillcolor="#eca36e"] ;
435 -> 436 ;
437 [label="gini = 0.0\nsamples = 4\nvalue = [4, 0]\nclass = no_of_adults", fillcolor="#e58139"] ;
436 -> 437 ;
438 [label="gini = 0.391\nsamples = 15\nvalue = [11, 4]\nclass = no_of_adults", fillcolor="#eeaf81"] ;
436 -> 438 ;
439 [label="price_norm <= -0.432\ngini = 0.5\nsamples = 6\nvalue = [3, 3]\nclass = no_of_adults", fillcolor="#ffffff"] ;
435 -> 439 ;
440 [label="gini = 0.0\nsamples = 2\nvalue = [0, 2]\nclass = no_of_children", fillcolor="#399de5"] ;
439 -> 440 ;
441 [label="gini = 0.375\nsamples = 4\nvalue = [3, 1]\nclass = no_of_adults", fillcolor="#eeab7b"] ;
439 -> 441 ;
442 [label="gini = 0.0\nsamples = 2\nvalue = [0, 2]\nclass = no_of_children", fillcolor="#399de5"] ;
426 -> 442 ;
443 [label="arrival_year <= 2017.5\ngini = 0.471\nsamples = 720\nvalue = [273, 447]\nclass = no_of_children", fillcolor="#b2d9f5"] ;
419 -> 443 ;
444 [label="lead_time_norm <= 1.319\ngini = 0.335\nsamples = 127\nvalue = [100, 27]\nclass = no_of_adults", fillcolor="#eca36e"] ;
443 -> 444 ;
445 [label="lead_time_norm <= 0.963\ngini = 0.497\nsamples = 41\nvalue = [19, 22]\nclass = no_of_children", fillcolor="#e4f2fb"] ;
444 -> 445 ;
446 [label="gini = 0.0\nsamples = 19\nvalue = [19, 0]\nclass = no_of_adults", fillcolor="#e58139"] ;
445 -> 446 ;
447 [label="gini = 0.0\nsamples = 22\nvalue = [0, 22]\nclass = no_of_children", fillcolor="#399de5"] ;
445 -> 447 ;
448 [label="meal_type_1 <= 0.5\ngini = 0.11\nsamples = 86\nvalue = [81, 5]\nclass = no_of_adults", fillcolor="#e78945"] ;
444 -> 448 ;
449 [label="lead_time_norm <= 2.135\ngini = 0.494\nsamples = 9\nvalue = [4, 5]\nclass = no_of_children", fillcolor="#d7ebfa"] ;
448 -> 449 ;
450 [label="gini = 0.0\nsamples = 5\nvalue = [0, 5]\nclass = no_of_children", fillcolor="#399de5"] ;
449 -> 450 ;
451 [label="gini = 0.0\nsamples = 4\nvalue = [4, 0]\nclass = no_of_adults", fillcolor="#e58139"] ;
449 -> 451 ;
452 [label="gini = 0.0\nsamples = 77\nvalue = [77, 0]\nclass = no_of_adults", fillcolor="#e58139"] ;
448 -> 452 ;
453 [label="arrival_month <= 11.5\ngini = 0.413\nsamples = 593\nvalue = [173, 420]\nclass = no_of_children", fillcolor="#8bc5f0"] ;
443 -> 453 ;
454 [label="lead_time_norm <= 1.377\ngini = 0.36\nsamples = 549\nvalue = [129, 420]\nclass = no_of_children", fillcolor="#76bbed"] ;
453 -> 454 ;
455 [label="price_norm <= -0.538\ngini = 0.483\nsamples = 125\nvalue = [74, 51]\nclass = no_of_adults", fillcolor="#f7d8c1"] ;
454 -> 455 ;
456 [label="no_of_previous_bookings_not_canceled <= 0.5\ngini = 0.301\nsamples = 76\nvalue = [62, 14]\nclass = no_of_adults", fillcolor="#eb9d66"] ;
455 -> 456 ;
457 [label="gini = 0.239\nsamples = 72\nvalue = [62, 10]\nclass = no_of_adults", fillcolor="#e99559"] ;
456 -> 457 ;
458 [label="gini = 0.0\nsamples = 4\nvalue = [0, 4]\nclass = no_of_children", fillcolor="#399de5"] ;
456 -> 458 ;
459 [label="price_norm <= -0.372\ngini = 0.37\nsamples = 49\nvalue = [12, 37]\nclass = no_of_children", fillcolor="#79bded"] ;
455 -> 459 ;
460 [label="gini = 0.069\nsamples = 28\nvalue = [1, 27]\nclass = no_of_children", fillcolor="#40a1e6"] ;
459 -> 460 ;
461 [label="gini = 0.499\nsamples = 21\nvalue = [11, 10]\nclass = no_of_adults", fillcolor="#fdf4ed"] ;
459 -> 461 ;
462 [label="no_of_week_nights <= 3.5\ngini = 0.226\nsamples = 424\nvalue = [55, 369]\nclass = no_of_children", fillcolor="#57ace9"] ;
454 -> 462 ;
463 [label="room_type_4 <= 0.5\ngini = 0.141\nsamples = 354\nvalue = [27, 327]\nclass = no_of_children", fillcolor="#49a5e7"] ;
462 -> 463 ;
464 [label="gini = 0.123\nsamples = 350\nvalue = [23, 327]\nclass = no_of_children", fillcolor="#47a4e7"] ;
463 -> 464 ;
465 [label="gini = 0.0\nsamples = 4\nvalue = [4, 0]\nclass = no_of_adults", fillcolor="#e58139"] ;
463 -> 465 ;
466 [label="price_norm <= -0.923\ngini = 0.48\nsamples = 70\nvalue = [28, 42]\nclass = no_of_children", fillcolor="#bddef6"] ;
462 -> 466 ;
467 [label="gini = 0.091\nsamples = 21\nvalue = [1, 20]\nclass = no_of_children", fillcolor="#43a2e6"] ;
466 -> 467 ;
468 [label="gini = 0.495\nsamples = 49\nvalue = [27, 22]\nclass = no_of_adults", fillcolor="#fae8da"] ;
466 -> 468 ;
469 [label="gini = 0.0\nsamples = 44\nvalue = [44, 0]\nclass = no_of_adults", fillcolor="#e58139"] ;
453 -> 469 ;
470 [label="price_norm <= -2.908\ngini = 0.056\nsamples = 483\nvalue = [14, 469]\nclass = no_of_children", fillcolor="#3fa0e6"] ;
418 -> 470 ;
471 [label="gini = 0.0\nsamples = 9\nvalue = [9, 0]\nclass = no_of_adults", fillcolor="#e58139"] ;
470 -> 471 ;
472 [label="arrival_month <= 11.5\ngini = 0.021\nsamples = 474\nvalue = [5, 469]\nclass = no_of_children", fillcolor="#3b9ee5"] ;
470 -> 472 ;
473 [label="gini = 0.0\nsamples = 412\nvalue = [0, 412]\nclass = no_of_children", fillcolor="#399de5"] ;
472 -> 473 ;
474 [label="no_of_weekend_nights <= 0.5\ngini = 0.148\nsamples = 62\nvalue = [5, 57]\nclass = no_of_children", fillcolor="#4aa6e7"] ;
472 -> 474 ;
475 [label="lead_time_norm <= 1.628\ngini = 0.408\nsamples = 14\nvalue = [4, 10]\nclass = no_of_children", fillcolor="#88c4ef"] ;
474 -> 475 ;
476 [label="lead_time_norm <= 1.441\ngini = 0.49\nsamples = 7\nvalue = [4, 3]\nclass = no_of_adults", fillcolor="#f8e0ce"] ;
475 -> 476 ;
477 [label="arrival_date <= 4.5\ngini = 0.375\nsamples = 4\nvalue = [1, 3]\nclass = no_of_children", fillcolor="#7bbeee"] ;
476 -> 477 ;
478 [label="gini = 0.0\nsamples = 2\nvalue = [0, 2]\nclass = no_of_children", fillcolor="#399de5"] ;
477 -> 478 ;
479 [label="gini = 0.5\nsamples = 2\nvalue = [1, 1]\nclass = no_of_adults", fillcolor="#ffffff"] ;
477 -> 479 ;
480 [label="gini = 0.0\nsamples = 3\nvalue = [3, 0]\nclass = no_of_adults", fillcolor="#e58139"] ;
476 -> 480 ;
481 [label="gini = 0.0\nsamples = 7\nvalue = [0, 7]\nclass = no_of_children", fillcolor="#399de5"] ;
475 -> 481 ;
482 [label="no_of_week_nights <= 1.5\ngini = 0.041\nsamples = 48\nvalue = [1, 47]\nclass = no_of_children", fillcolor="#3d9fe6"] ;
474 -> 482 ;
483 [label="price_norm <= -0.752\ngini = 0.32\nsamples = 5\nvalue = [1, 4]\nclass = no_of_children", fillcolor="#6ab6ec"] ;
482 -> 483 ;
484 [label="gini = 0.5\nsamples = 2\nvalue = [1, 1]\nclass = no_of_adults", fillcolor="#ffffff"] ;
483 -> 484 ;
485 [label="gini = 0.0\nsamples = 3\nvalue = [0, 3]\nclass = no_of_children", fillcolor="#399de5"] ;
483 -> 485 ;
486 [label="gini = 0.0\nsamples = 43\nvalue = [0, 43]\nclass = no_of_children", fillcolor="#399de5"] ;
482 -> 486 ;
487 [label="no_of_weekend_nights <= 0.5\ngini = 0.395\nsamples = 671\nvalue = [489, 182]\nclass = no_of_adults", fillcolor="#efb083"] ;
417 -> 487 ;
488 [label="lead_time_norm <= 1.109\ngini = 0.498\nsamples = 204\nvalue = [95, 109]\nclass = no_of_children", fillcolor="#e6f2fc"] ;
487 -> 488 ;
489 [label="no_of_week_nights <= 1.5\ngini = 0.165\nsamples = 55\nvalue = [50, 5]\nclass = no_of_adults", fillcolor="#e88e4d"] ;
488 -> 489 ;
490 [label="price_norm <= -0.196\ngini = 0.463\nsamples = 11\nvalue = [7, 4]\nclass = no_of_adults", fillcolor="#f4c9aa"] ;
489 -> 490 ;
491 [label="arrival_date <= 27.5\ngini = 0.444\nsamples = 6\nvalue = [2, 4]\nclass = no_of_children", fillcolor="#9ccef2"] ;
490 -> 491 ;
492 [label="gini = 0.0\nsamples = 4\nvalue = [0, 4]\nclass = no_of_children", fillcolor="#399de5"] ;
491 -> 492 ;
493 [label="gini = 0.0\nsamples = 2\nvalue = [2, 0]\nclass = no_of_adults", fillcolor="#e58139"] ;
491 -> 493 ;
494 [label="gini = 0.0\nsamples = 5\nvalue = [5, 0]\nclass = no_of_adults", fillcolor="#e58139"] ;
490 -> 494 ;
495 [label="arrival_month <= 10.5\ngini = 0.044\nsamples = 44\nvalue = [43, 1]\nclass = no_of_adults", fillcolor="#e6843e"] ;
489 -> 495 ;
496 [label="gini = 0.0\nsamples = 41\nvalue = [41, 0]\nclass = no_of_adults", fillcolor="#e58139"] ;
495 -> 496 ;
497 [label="gini = 0.444\nsamples = 3\nvalue = [2, 1]\nclass = no_of_adults", fillcolor="#f2c09c"] ;
495 -> 497 ;
498 [label="Aviation <= 0.5\ngini = 0.422\nsamples = 149\nvalue = [45, 104]\nclass = no_of_children", fillcolor="#8fc7f0"] ;
488 -> 498 ;
499 [label="no_of_adults <= 2.5\ngini = 0.219\nsamples = 24\nvalue = [21, 3]\nclass = no_of_adults", fillcolor="#e99355"] ;
498 -> 499 ;
500 [label="lead_time_norm <= 2.771\ngini = 0.087\nsamples = 22\nvalue = [21, 1]\nclass = no_of_adults", fillcolor="#e68742"] ;
499 -> 500 ;
501 [label="gini = 0.0\nsamples = 18\nvalue = [18, 0]\nclass = no_of_adults", fillcolor="#e58139"] ;
500 -> 501 ;
502 [label="gini = 0.375\nsamples = 4\nvalue = [3, 1]\nclass = no_of_adults", fillcolor="#eeab7b"] ;
500 -> 502 ;
503 [label="gini = 0.0\nsamples = 2\nvalue = [0, 2]\nclass = no_of_children", fillcolor="#399de5"] ;
499 -> 503 ;
504 [label="no_of_special_requests <= 2.5\ngini = 0.31\nsamples = 125\nvalue = [24, 101]\nclass = no_of_children", fillcolor="#68b4eb"] ;
498 -> 504 ;
505 [label="arrival_month <= 11.5\ngini = 0.19\nsamples = 113\nvalue = [12, 101]\nclass = no_of_children", fillcolor="#51a9e8"] ;
504 -> 505 ;
506 [label="no_of_week_nights <= 0.5\ngini = 0.041\nsamples = 95\nvalue = [2, 93]\nclass = no_of_children", fillcolor="#3d9fe6"] ;
505 -> 506 ;
507 [label="gini = 0.0\nsamples = 2\nvalue = [2, 0]\nclass = no_of_adults", fillcolor="#e58139"] ;
506 -> 507 ;
508 [label="gini = 0.0\nsamples = 93\nvalue = [0, 93]\nclass = no_of_children", fillcolor="#399de5"] ;
506 -> 508 ;
509 [label="lead_time_norm <= 2.24\ngini = 0.494\nsamples = 18\nvalue = [10, 8]\nclass = no_of_adults", fillcolor="#fae6d7"] ;
505 -> 509 ;
510 [label="lead_time_norm <= 1.599\ngini = 0.198\nsamples = 9\nvalue = [8, 1]\nclass = no_of_adults", fillcolor="#e89152"] ;
509 -> 510 ;
511 [label="gini = 0.5\nsamples = 2\nvalue = [1, 1]\nclass = no_of_adults", fillcolor="#ffffff"] ;
510 -> 511 ;
512 [label="gini = 0.0\nsamples = 7\nvalue = [7, 0]\nclass = no_of_adults", fillcolor="#e58139"] ;
510 -> 512 ;
513 [label="arrival_date <= 23.5\ngini = 0.346\nsamples = 9\nvalue = [2, 7]\nclass = no_of_children", fillcolor="#72b9ec"] ;
509 -> 513 ;
514 [label="gini = 0.0\nsamples = 5\nvalue = [0, 5]\nclass = no_of_children", fillcolor="#399de5"] ;
513 -> 514 ;
515 [label="gini = 0.5\nsamples = 4\nvalue = [2, 2]\nclass = no_of_adults", fillcolor="#ffffff"] ;
513 -> 515 ;
516 [label="gini = 0.0\nsamples = 12\nvalue = [12, 0]\nclass = no_of_adults", fillcolor="#e58139"] ;
504 -> 516 ;
517 [label="Aviation <= 0.5\ngini = 0.264\nsamples = 467\nvalue = [394, 73]\nclass = no_of_adults", fillcolor="#ea985e"] ;
487 -> 517 ;
518 [label="no_of_week_nights <= 5.5\ngini = 0.031\nsamples = 128\nvalue = [126, 2]\nclass = no_of_adults", fillcolor="#e5833c"] ;
517 -> 518 ;
519 [label="lead_time_norm <= 0.94\ngini = 0.016\nsamples = 126\nvalue = [125, 1]\nclass = no_of_adults", fillcolor="#e5823b"] ;
518 -> 519 ;
520 [label="lead_time_norm <= 0.917\ngini = 0.071\nsamples = 27\nvalue = [26, 1]\nclass = no_of_adults", fillcolor="#e68641"] ;
519 -> 520 ;
521 [label="gini = 0.0\nsamples = 25\nvalue = [25, 0]\nclass = no_of_adults", fillcolor="#e58139"] ;
520 -> 521 ;
522 [label="gini = 0.5\nsamples = 2\nvalue = [1, 1]\nclass = no_of_adults", fillcolor="#ffffff"] ;
520 -> 522 ;
523 [label="gini = 0.0\nsamples = 99\nvalue = [99, 0]\nclass = no_of_adults", fillcolor="#e58139"] ;
519 -> 523 ;
524 [label="gini = 0.5\nsamples = 2\nvalue = [1, 1]\nclass = no_of_adults", fillcolor="#ffffff"] ;
518 -> 524 ;
525 [label="no_of_week_nights <= 9.5\ngini = 0.331\nsamples = 339\nvalue = [268, 71]\nclass = no_of_adults", fillcolor="#eca26d"] ;
517 -> 525 ;
526 [label="arrival_date <= 26.5\ngini = 0.317\nsamples = 334\nvalue = [268, 66]\nclass = no_of_adults", fillcolor="#eba06a"] ;
525 -> 526 ;
527 [label="price_norm <= -0.768\ngini = 0.27\nsamples = 255\nvalue = [214, 41]\nclass = no_of_adults", fillcolor="#ea995f"] ;
526 -> 527 ;
528 [label="arrival_month <= 11.5\ngini = 0.033\nsamples = 59\nvalue = [58, 1]\nclass = no_of_adults", fillcolor="#e5833c"] ;
527 -> 528 ;
529 [label="gini = 0.0\nsamples = 49\nvalue = [49, 0]\nclass = no_of_adults", fillcolor="#e58139"] ;
528 -> 529 ;
530 [label="lead_time_norm <= 1.919\ngini = 0.18\nsamples = 10\nvalue = [9, 1]\nclass = no_of_adults", fillcolor="#e88f4f"] ;
528 -> 530 ;
531 [label="gini = 0.0\nsamples = 8\nvalue = [8, 0]\nclass = no_of_adults", fillcolor="#e58139"] ;
530 -> 531 ;
532 [label="gini = 0.5\nsamples = 2\nvalue = [1, 1]\nclass = no_of_adults", fillcolor="#ffffff"] ;
530 -> 532 ;
533 [label="no_of_week_nights <= 2.5\ngini = 0.325\nsamples = 196\nvalue = [156, 40]\nclass = no_of_adults", fillcolor="#eca16c"] ;
527 -> 533 ;
534 [label="lead_time_norm <= 2.036\ngini = 0.221\nsamples = 95\nvalue = [83, 12]\nclass = no_of_adults", fillcolor="#e99356"] ;
533 -> 534 ;
535 [label="gini = 0.184\nsamples = 88\nvalue = [79, 9]\nclass = no_of_adults", fillcolor="#e88f50"] ;
534 -> 535 ;
536 [label="gini = 0.49\nsamples = 7\nvalue = [4, 3]\nclass = no_of_adults", fillcolor="#f8e0ce"] ;
534 -> 536 ;
537 [label="lead_time_norm <= 0.794\ngini = 0.401\nsamples = 101\nvalue = [73, 28]\nclass = no_of_adults", fillcolor="#efb185"] ;
533 -> 537 ;
538 [label="gini = 0.0\nsamples = 2\nvalue = [0, 2]\nclass = no_of_children", fillcolor="#399de5"] ;
537 -> 538 ;
539 [label="gini = 0.387\nsamples = 99\nvalue = [73, 26]\nclass = no_of_adults", fillcolor="#eeae80"] ;
537 -> 539 ;
540 [label="no_of_week_nights <= 1.5\ngini = 0.433\nsamples = 79\nvalue = [54, 25]\nclass = no_of_adults", fillcolor="#f1bb95"] ;
526 -> 540 ;
541 [label="arrival_date <= 29.5\ngini = 0.457\nsamples = 17\nvalue = [6, 11]\nclass = no_of_children", fillcolor="#a5d2f3"] ;
540 -> 541 ;
542 [label="lead_time_norm <= 1.156\ngini = 0.278\nsamples = 12\nvalue = [2, 10]\nclass = no_of_children", fillcolor="#61b1ea"] ;
541 -> 542 ;
543 [label="gini = 0.0\nsamples = 6\nvalue = [0, 6]\nclass = no_of_children", fillcolor="#399de5"] ;
542 -> 543 ;
544 [label="gini = 0.444\nsamples = 6\nvalue = [2, 4]\nclass = no_of_children", fillcolor="#9ccef2"] ;
542 -> 544 ;
545 [label="no_of_special_requests <= 1.5\ngini = 0.32\nsamples = 5\nvalue = [4, 1]\nclass = no_of_adults", fillcolor="#eca06a"] ;
541 -> 545 ;
546 [label="gini = 0.0\nsamples = 3\nvalue = [3, 0]\nclass = no_of_adults", fillcolor="#e58139"] ;
545 -> 546 ;
547 [label="gini = 0.5\nsamples = 2\nvalue = [1, 1]\nclass = no_of_adults", fillcolor="#ffffff"] ;
545 -> 547 ;
548 [label="lead_time_norm <= 2.141\ngini = 0.35\nsamples = 62\nvalue = [48, 14]\nclass = no_of_adults", fillcolor="#eda673"] ;
540 -> 548 ;
549 [label="no_of_week_nights <= 3.5\ngini = 0.252\nsamples = 54\nvalue = [46, 8]\nclass = no_of_adults", fillcolor="#ea975b"] ;
548 -> 549 ;
550 [label="gini = 0.142\nsamples = 39\nvalue = [36, 3]\nclass = no_of_adults", fillcolor="#e78c49"] ;
549 -> 550 ;
551 [label="gini = 0.444\nsamples = 15\nvalue = [10, 5]\nclass = no_of_adults", fillcolor="#f2c09c"] ;
549 -> 551 ;
552 [label="no_of_week_nights <= 3.5\ngini = 0.375\nsamples = 8\nvalue = [2, 6]\nclass = no_of_children", fillcolor="#7bbeee"] ;
548 -> 552 ;
553 [label="gini = 0.0\nsamples = 5\nvalue = [0, 5]\nclass = no_of_children", fillcolor="#399de5"] ;
552 -> 553 ;
554 [label="gini = 0.444\nsamples = 3\nvalue = [2, 1]\nclass = no_of_adults", fillcolor="#f2c09c"] ;
552 -> 554 ;
555 [label="gini = 0.0\nsamples = 5\nvalue = [0, 5]\nclass = no_of_children", fillcolor="#399de5"] ;
525 -> 555 ;
556 [label="arrival_month <= 11.5\ngini = 0.092\nsamples = 1789\nvalue = [86, 1703]\nclass = no_of_children", fillcolor="#43a2e6"] ;
416 -> 556 ;
557 [label="no_of_special_requests <= 2.5\ngini = 0.035\nsamples = 1722\nvalue = [31, 1691]\nclass = no_of_children", fillcolor="#3d9fe5"] ;
556 -> 557 ;
558 [label="gini = 0.0\nsamples = 1691\nvalue = [0, 1691]\nclass = no_of_children", fillcolor="#399de5"] ;
557 -> 558 ;
559 [label="gini = 0.0\nsamples = 31\nvalue = [31, 0]\nclass = no_of_adults", fillcolor="#e58139"] ;
557 -> 559 ;
560 [label="no_of_special_requests <= 0.5\ngini = 0.294\nsamples = 67\nvalue = [55, 12]\nclass = no_of_adults", fillcolor="#eb9c64"] ;
556 -> 560 ;
561 [label="gini = 0.0\nsamples = 49\nvalue = [49, 0]\nclass = no_of_adults", fillcolor="#e58139"] ;
560 -> 561 ;
562 [label="room_type_1 <= 0.5\ngini = 0.444\nsamples = 18\nvalue = [6, 12]\nclass = no_of_children", fillcolor="#9ccef2"] ;
560 -> 562 ;
563 [label="arrival_date <= 16.0\ngini = 0.245\nsamples = 14\nvalue = [2, 12]\nclass = no_of_children", fillcolor="#5aade9"] ;
562 -> 563 ;
564 [label="gini = 0.0\nsamples = 2\nvalue = [2, 0]\nclass = no_of_adults", fillcolor="#e58139"] ;
563 -> 564 ;
565 [label="gini = 0.0\nsamples = 12\nvalue = [0, 12]\nclass = no_of_children", fillcolor="#399de5"] ;
563 -> 565 ;
566 [label="gini = 0.0\nsamples = 4\nvalue = [4, 0]\nclass = no_of_adults", fillcolor="#e58139"] ;
562 -> 566 ;
}